<?xml version="1.0"?>
<opencv_storage>
<cascade>
  <stageType>BOOST</stageType>
  <featureType>LBP</featureType>
  <height>80</height>
  <width>32</width>
  <stageParams>
    <boostType>GAB</boostType>
    <minHitRate>9.9900001287460327e-01</minHitRate>
    <maxFalseAlarm>5.0000000000000000e-01</maxFalseAlarm>
    <weightTrimRate>9.4999999999999996e-01</weightTrimRate>
    <maxDepth>1</maxDepth>
    <maxWeakCount>100</maxWeakCount></stageParams>
  <featureParams>
    <maxCatCount>256</maxCatCount>
    <featSize>1</featSize></featureParams>
  <stageNum>20</stageNum>
  <stages>
    <!-- stage 0 -->
    <_>
      <maxWeakCount>3</maxWeakCount>
      <stageThreshold>-9.5272892713546753e-01</stageThreshold>
      <weakClassifiers>
        <_>
          <internalNodes>
            0 -1 3 -781061409 285261824 -251592423 555289464 -1979152246
            134217728 1072711851 196619</internalNodes>
          <leafValues>
            -8.0952382087707520e-01 8.3155858516693115e-01</leafValues></_>
        <_>
          <internalNodes>
            0 -1 27 -116796961 1392836624 -2147483640 16384 -1845327221
            570425345 168476843 2793515</internalNodes>
          <leafValues>
            -8.3844232559204102e-01 6.8822711706161499e-01</leafValues></_>
        <_>
          <internalNodes>
            0 -1 83 -241970980 -251625472 98307 1090584576 -1862107000
            -1207959552 32936 -1659699190</internalNodes>
          <leafValues>
            -7.6770699024200439e-01 6.9523721933364868e-01</leafValues></_></weakClassifiers></_>
    <!-- stage 1 -->
    <_>
      <maxWeakCount>4</maxWeakCount>
      <stageThreshold>-1.3251210451126099e+00</stageThreshold>
      <weakClassifiers>
        <_>
          <internalNodes>
            0 -1 44 36912 335544320 2069 50397201 8423562 -2147450750
            557227 732661919</internalNodes>
          <leafValues>
            -7.9270631074905396e-01 7.5347542762756348e-01</leafValues></_>
        <_>
          <internalNodes>
            0 -1 39 -780021538 -805306368 536871060 -787415024
            -1610577736 -1879048184 -2013229894 -2011070310</internalNodes>
          <leafValues>
            -7.8547483682632446e-01 7.2811579704284668e-01</leafValues></_>
        <_>
          <internalNodes>
            0 -1 72 -1065308936 960380668 524038139 2071276472
            1072279548 1056964607 532627451 -1422181441</internalNodes>
          <leafValues>
            -6.6288691759109497e-01 7.9488277435302734e-01</leafValues></_>
        <_>
          <internalNodes>
            0 -1 96 -771718949 -2147483648 17825794 -267386864
            -2147450752 -2147483648 -528449144 -1162208640</internalNodes>
          <leafValues>
            -5.9764367341995239e-01 7.9538220167160034e-01</leafValues></_></weakClassifiers></_>
    <!-- stage 2 -->
    <_>
      <maxWeakCount>4</maxWeakCount>
      <stageThreshold>-9.6422404050827026e-01</stageThreshold>
      <weakClassifiers>
        <_>
          <internalNodes>
            0 -1 96 -9110019 -1342899721 -33751042 -1606484020
            -2147450752 -16908292 -9046544 -1163263048</internalNodes>
          <leafValues>
            -6.1270803213119507e-01 8.5729497671127319e-01</leafValues></_>
        <_>
          <internalNodes>
            0 -1 43 208 1363185682 100663441 893595713 -1878998846
            838992011 -2004776885 -1146412853</internalNodes>
          <leafValues>
            -6.3516050577163696e-01 7.8219163417816162e-01</leafValues></_>
        <_>
          <internalNodes>
            0 -1 75 -4195090 -5543700 -16831493 1609395374 -541069316
            -1787273730 347921500 -2127888257</internalNodes>
          <leafValues>
            -5.8020019531250000e-01 8.0100476741790771e-01</leafValues></_>
        <_>
          <internalNodes>
            0 -1 87 -668403496 1351101472 -671182479 -1753403407
            -17920065 100646847 -1900300769 -1992299781</internalNodes>
          <leafValues>
            -5.1736027002334595e-01 8.7453043460845947e-01</leafValues></_></weakClassifiers></_>
    <!-- stage 3 -->
    <_>
      <maxWeakCount>6</maxWeakCount>
      <stageThreshold>-1.1933298110961914e+00</stageThreshold>
      <weakClassifiers>
        <_>
          <internalNodes>
            0 -1 91 -13 -51053058 -33751050 -72024076 -570564780
            -42139780 -170263332 -321069860</internalNodes>
          <leafValues>
            -6.9892472028732300e-01 7.5815737247467041e-01</leafValues></_>
        <_>
          <internalNodes>
            0 -1 93 -1333657472 -2147483648 1342177296 -2147483520
            1477052420 -2147352576 -2013233020 -293433206</internalNodes>
          <leafValues>
            -6.4209866523742676e-01 7.3338788747787476e-01</leafValues></_>
        <_>
          <internalNodes>
            0 -1 8 -1870094112 -1040056304 1114114 -805108735
            -2113921024 8192 -1610612736 -746389343</internalNodes>
          <leafValues>
            -5.6519496440887451e-01 7.2537678480148315e-01</leafValues></_>
        <_>
          <internalNodes>
            0 -1 77 -177736481 1966145792 1360470024 -578338624
            -792270623 276897792 1493787822 144398479</internalNodes>
          <leafValues>
            -6.8473875522613525e-01 6.1699765920639038e-01</leafValues></_>
        <_>
          <internalNodes>
            0 -1 47 -340791802 -1972470036 -1359003998 -496142610
            -4274684 116260735 -176785824 -1498503692</internalNodes>
          <leafValues>
            -6.1041706800460815e-01 6.9889956712722778e-01</leafValues></_>
        <_>
          <internalNodes>
            0 -1 98 -1092088280 -2063732756 -805355917 -1297940625
            -1342393520 -302157962 1476197812 -492413600</internalNodes>
          <leafValues>
            -6.0300868749618530e-01 7.4952954053878784e-01</leafValues></_></weakClassifiers></_>
    <!-- stage 4 -->
    <_>
      <maxWeakCount>6</maxWeakCount>
      <stageThreshold>-1.0705345869064331e+00</stageThreshold>
      <weakClassifiers>
        <_>
          <internalNodes>
            0 -1 105 -25264572 1866382950 -1090523518 -35672755
            -16875692 -537034755 -1627422772 -50661410</internalNodes>
          <leafValues>
            -3.7550470232963562e-01 7.9229873418807983e-01</leafValues></_>
        <_>
          <internalNodes>
            0 -1 6 -788343333 -654227367 2129 -787152685 1207992482
            -1878783856 -939487009 287506643</internalNodes>
          <leafValues>
            -5.9156167507171631e-01 6.3842755556106567e-01</leafValues></_>
        <_>
          <internalNodes>
            0 -1 64 -3 -38010882 -17896194 -1648513362 -33759235
            -637741827 225045758 -1650626019</internalNodes>
          <leafValues>
            -5.6122273206710815e-01 6.3467156887054443e-01</leafValues></_>
        <_>
          <internalNodes>
            0 -1 17 -595529008 293617712 68179293 697693585 939936667
            138511252 -418805605 856416923</internalNodes>
          <leafValues>
            -7.3147761821746826e-01 4.8138105869293213e-01</leafValues></_>
        <_>
          <internalNodes>
            0 -1 100 5314560 805830656 -2147352448 -1320615936
            -2013265910 -1996488704 2132107 -2104786741</internalNodes>
          <leafValues>
            -5.6226736307144165e-01 6.8501204252243042e-01</leafValues></_>
        <_>
          <internalNodes>
            0 -1 49 1426184656 1368662026 -1862254582 -782942080
            -2147417728 -1744793472 33601787 1217368137</internalNodes>
          <leafValues>
            -6.1219817399978638e-01 6.0116297006607056e-01</leafValues></_></weakClassifiers></_>
    <!-- stage 5 -->
    <_>
      <maxWeakCount>5</maxWeakCount>
      <stageThreshold>-8.3791315555572510e-01</stageThreshold>
      <weakClassifiers>
        <_>
          <internalNodes>
            0 -1 24 36717776 -17693703 2139062271 1002127359 -1372277025
            -671655937 -9519105 796606463</internalNodes>
          <leafValues>
            -6.0600376129150391e-01 6.7760074138641357e-01</leafValues></_>
        <_>
          <internalNodes>
            0 -1 57 -783163426 -751976315 -603881396 -712310774
            -1056755538 587268234 805962442 857420606</internalNodes>
          <leafValues>
            -7.2147923707962036e-01 5.4761046171188354e-01</leafValues></_>
        <_>
          <internalNodes>
            0 -1 107 -721364834 -175791992 -1593762469 486866949
            -2104850118 -786921464 268619983 285933827</internalNodes>
          <leafValues>
            -6.0033619403839111e-01 6.1605280637741089e-01</leafValues></_>
        <_>
          <internalNodes>
            0 -1 22 -778724416 -754908800 17040384 -1877671352
            -1450999671 49168 25200015 -1694367734</internalNodes>
          <leafValues>
            -5.8407777547836304e-01 6.1425679922103882e-01</leafValues></_>
        <_>
          <internalNodes>
            0 -1 94 -247401752 1367380140 -2146385909 420618253
            -1601994098 486605952 -1828714037 390266971</internalNodes>
          <leafValues>
            -7.4073982238769531e-01 5.1639801263809204e-01</leafValues></_></weakClassifiers></_>
    <!-- stage 6 -->
    <_>
      <maxWeakCount>6</maxWeakCount>
      <stageThreshold>-1.4286707639694214e+00</stageThreshold>
      <weakClassifiers>
        <_>
          <internalNodes>
            0 -1 66 -788270082 -1061044096 33818 -671067880 -1878949655
            -2138046326 -1073182552 1458544778</internalNodes>
          <leafValues>
            -7.3085844516754150e-01 6.1163389682769775e-01</leafValues></_>
        <_>
          <internalNodes>
            0 -1 90 -669257322 1619038352 -2147221502 -1874575344
            -1037926400 -2013265920 134908820 1074503839</internalNodes>
          <leafValues>
            -7.1223938465118408e-01 4.8759242892265320e-01</leafValues></_>
        <_>
          <internalNodes>
            0 -1 96 -9110017 -269157897 -33619970 -4259892 -8913420
            -16908290 -9046544 -1078198984</internalNodes>
          <leafValues>
            -5.4939776659011841e-01 6.6670286655426025e-01</leafValues></_>
        <_>
          <internalNodes>
            0 -1 78 -1 -33554689 -50393972 -1111769928 -50860836
            -704856324 -404830979 -1982865748</internalNodes>
          <leafValues>
            -5.2520161867141724e-01 6.4316815137863159e-01</leafValues></_>
        <_>
          <internalNodes>
            0 -1 29 268491006 274780288 542209303 22053076 402768009
            -1332638717 -1996441461 1063246331</internalNodes>
          <leafValues>
            -8.1367814540863037e-01 4.2651721835136414e-01</leafValues></_>
        <_>
          <internalNodes>
            0 -1 0 -741346361 -1023156087 75 1426681858 -1459518285
            34824 -2088458110 1364443963</internalNodes>
          <leafValues>
            -6.0815745592117310e-01 6.2180119752883911e-01</leafValues></_></weakClassifiers></_>
    <!-- stage 7 -->
    <_>
      <maxWeakCount>6</maxWeakCount>
      <stageThreshold>-5.5545586347579956e-01</stageThreshold>
      <weakClassifiers>
        <_>
          <internalNodes>
            0 -1 118 -1363236222 -357667094 -1359286558 -532252952
            1459616836 -2038432161 -1502300956 -1230049313</internalNodes>
          <leafValues>
            -3.6551722884178162e-01 7.5999999046325684e-01</leafValues></_>
        <_>
          <internalNodes>
            0 -1 119 -827413880 -2132406552 788522912 1357262568
            -1921525997 239597532 -134572110 -89423873</internalNodes>
          <leafValues>
            -4.1432681679725647e-01 7.3104852437973022e-01</leafValues></_>
        <_>
          <internalNodes>
            0 -1 32 -1359876574 -2106790290 1794964130 -193204508
            -33573051 1434222463 -688396349 -136583181</internalNodes>
          <leafValues>
            -4.3328976631164551e-01 6.9991636276245117e-01</leafValues></_>
        <_>
          <internalNodes>
            0 -1 23 -803827502 966134448 4198472 1904660608 -2136942584
            285214721 950410 -1954303607</internalNodes>
          <leafValues>
            -5.7317835092544556e-01 5.7141560316085815e-01</leafValues></_>
        <_>
          <internalNodes>
            0 -1 117 -835801438 -990974226 1051884210 -1735166212
            -1342710450 -2031655554 -1359026440 -355213828</internalNodes>
          <leafValues>
            -4.5141100883483887e-01 7.2726970911026001e-01</leafValues></_>
        <_>
          <internalNodes>
            0 -1 10 -262157 -67766281 -16903 -1145372678 -16778252
            -1913326604 -33555220 195025763</internalNodes>
          <leafValues>
            -5.7645606994628906e-01 6.5228885412216187e-01</leafValues></_></weakClassifiers></_>
    <!-- stage 8 -->
    <_>
      <maxWeakCount>6</maxWeakCount>
      <stageThreshold>-1.1963278055191040e+00</stageThreshold>
      <weakClassifiers>
        <_>
          <internalNodes>
            0 -1 84 -781332073 -518320103 -2128592633 1037140114
            -1551334470 789315593 10638 688138</internalNodes>
          <leafValues>
            -7.1007370948791504e-01 5.7753562927246094e-01</leafValues></_>
        <_>
          <internalNodes>
            0 -1 45 -774319912 -669990760 -1610612451 -2029960156
            16856137 -1321205728 -527498789 -1342717783</internalNodes>
          <leafValues>
            -4.8914378881454468e-01 5.7753908634185791e-01</leafValues></_>
        <_>
          <internalNodes>
            0 -1 112 -1794116358 -863190819 805930368 -535789479 1176264
            -1610579968 -1585209140 1137566459</internalNodes>
          <leafValues>
            -5.6226277351379395e-01 5.2529704570770264e-01</leafValues></_>
        <_>
          <internalNodes>
            0 -1 101 -787480576 -1073676272 276832258 -1819082464
            -2146959360 -1039663072 -536837462 -353761109</internalNodes>
          <leafValues>
            -4.9035769701004028e-01 6.1989790201187134e-01</leafValues></_>
        <_>
          <internalNodes>
            0 -1 53 -200223496 -648638320 1074352375 -644804336
            -1073131087 -343899455 -1593759349 168249354</internalNodes>
          <leafValues>
            -5.4265213012695312e-01 6.0751932859420776e-01</leafValues></_>
        <_>
          <internalNodes>
            0 -1 46 1367953492 -1785147212 286261275 -673676270
            -2147401586 -652181360 -1392375558 746825961</internalNodes>
          <leafValues>
            -6.3956904411315918e-01 5.0998163223266602e-01</leafValues></_></weakClassifiers></_>
    <!-- stage 9 -->
    <_>
      <maxWeakCount>6</maxWeakCount>
      <stageThreshold>-1.3063336610794067e+00</stageThreshold>
      <weakClassifiers>
        <_>
          <internalNodes>
            0 -1 15 -16777478 -152146002 -486870290 -136124928
            -193667340 -2073657353 1145518026 1447393225</internalNodes>
          <leafValues>
            -4.4912281632423401e-01 6.3689321279525757e-01</leafValues></_>
        <_>
          <internalNodes>
            0 -1 65 -65537 1876766719 2147417599 -319049735 1341585244
            -1795228292 -142674436 -134742153</internalNodes>
          <leafValues>
            -4.8728841543197632e-01 5.9960329532623291e-01</leafValues></_>
        <_>
          <internalNodes>
            0 -1 80 413726360 -2070854472 419565941 -1182657920
            293773727 881033301 713556543 797682379</internalNodes>
          <leafValues>
            -7.4670672416687012e-01 3.9738634228706360e-01</leafValues></_>
        <_>
          <internalNodes>
            0 -1 109 -804786150 -1056489458 -2139094784 1086558215
            -1995959552 306774016 4431875 1125895755</internalNodes>
          <leafValues>
            -5.8464062213897705e-01 5.1336818933486938e-01</leafValues></_>
        <_>
          <internalNodes>
            0 -1 13 -486479652 -1009172331 -2147352487 -1894397681
            -2071965489 -1686100981 436449944 638913487</internalNodes>
          <leafValues>
            -6.6867643594741821e-01 4.6049511432647705e-01</leafValues></_>
        <_>
          <internalNodes>
            0 -1 69 353472847 -1043066864 16797726 1460355231
            -2113893964 1049216 8945850 -663758053</internalNodes>
          <leafValues>
            -6.0088354349136353e-01 4.9380654096603394e-01</leafValues></_></weakClassifiers></_>
    <!-- stage 10 -->
    <_>
      <maxWeakCount>7</maxWeakCount>
      <stageThreshold>-7.8928995132446289e-01</stageThreshold>
      <weakClassifiers>
        <_>
          <internalNodes>
            0 -1 63 -1078984755 -270073860 -134742532 2100625404
            -4259844 1196425236 -787459082 2138896014</internalNodes>
          <leafValues>
            -5.2772074937820435e-01 5.9029650688171387e-01</leafValues></_>
        <_>
          <internalNodes>
            0 -1 41 -8197 -253186130 -67354654 -537563232 -2 -868945929
            -135430 -16841398</internalNodes>
          <leafValues>
            -4.3986737728118896e-01 6.5545147657394409e-01</leafValues></_>
        <_>
          <internalNodes>
            0 -1 5 -677910725 -867721150 537182338 1363354339
            -1062502302 1077944361 -1300029338 1417142883</internalNodes>
          <leafValues>
            -5.8943766355514526e-01 4.8257434368133545e-01</leafValues></_>
        <_>
          <internalNodes>
            0 -1 56 -481429794 -251518034 -2141175552 282656841
            1780599618 -1186365440 1636493883 1146829691</internalNodes>
          <leafValues>
            -5.6678414344787598e-01 4.8214599490165710e-01</leafValues></_>
        <_>
          <internalNodes>
            0 -1 59 -585818158 -754970125 16847378 -687800290
            -1421243634 -2003236479 2038532266 -1376036453</internalNodes>
          <leafValues>
            -5.3529369831085205e-01 5.3511911630630493e-01</leafValues></_>
        <_>
          <internalNodes>
            0 -1 16 1414583184 -801062272 1344639379 -1727500218
            -397180761 943816704 285352187 2060175755</internalNodes>
          <leafValues>
            -6.7597472667694092e-01 4.7154891490936279e-01</leafValues></_>
        <_>
          <internalNodes>
            0 -1 48 -1333772096 -786788160 268435492 -1014955968
            268452168 1644822657 1073823882 512393704</internalNodes>
          <leafValues>
            -6.4556652307510376e-01 4.8913428187370300e-01</leafValues></_></weakClassifiers></_>
    <!-- stage 11 -->
    <_>
      <maxWeakCount>7</maxWeakCount>
      <stageThreshold>-7.9819369316101074e-01</stageThreshold>
      <weakClassifiers>
        <_>
          <internalNodes>
            0 -1 96 -9110019 -285935113 -33751042 -285278260 -8913420
            -16908290 -657936 -1078297160</internalNodes>
          <leafValues>
            -4.6043166518211365e-01 6.2835246324539185e-01</leafValues></_>
        <_>
          <internalNodes>
            0 -1 68 -1689887985 -1005788981 272629776 -733712158
            -2113601024 1082163330 -854879608 1437989774</internalNodes>
          <leafValues>
            -6.9375705718994141e-01 4.2093521356582642e-01</leafValues></_>
        <_>
          <internalNodes>
            0 -1 99 1364587199 -753886600 1090535457 -2021635700
            1495304113 436216064 -800999172 756672024</internalNodes>
          <leafValues>
            -6.9985169172286987e-01 3.6954426765441895e-01</leafValues></_>
        <_>
          <internalNodes>
            0 -1 35 1346433372 -581829637 1071644415 829652707
            -462651394 -1208664193 1073737199 -1506903494</internalNodes>
          <leafValues>
            -5.1039433479309082e-01 5.8490222692489624e-01</leafValues></_>
        <_>
          <internalNodes>
            0 -1 114 -901857600 -391397400 721136578 -226492566
            -1208168877 1635090037 -159975546 -67141890</internalNodes>
          <leafValues>
            -4.4109532237052917e-01 7.1852278709411621e-01</leafValues></_>
        <_>
          <internalNodes>
            0 -1 51 -2111524484 -254623592 402692439 894977032 268472574
            -1332674432 134253210 581632682</internalNodes>
          <leafValues>
            -7.1883910894393921e-01 4.3466562032699585e-01</leafValues></_>
        <_>
          <internalNodes>
            0 -1 7 -799965054 -2146959232 1342177280 -134152176
            -2113794048 -1610612736 -2097119104 -71597901</internalNodes>
          <leafValues>
            -5.2730113267898560e-01 5.8301997184753418e-01</leafValues></_></weakClassifiers></_>
    <!-- stage 12 -->
    <_>
      <maxWeakCount>7</maxWeakCount>
      <stageThreshold>-8.8900667428970337e-01</stageThreshold>
      <weakClassifiers>
        <_>
          <internalNodes>
            0 -1 60 268730783 -1849687936 335544521 -1908408320
            -1073434375 -1873803262 -771637112 1999288216</internalNodes>
          <leafValues>
            -6.5193372964859009e-01 5.1373183727264404e-01</leafValues></_>
        <_>
          <internalNodes>
            0 -1 110 -627584814 1208053772 1078461184 13156369
            -1056931060 557057 8553137 1633678223</internalNodes>
          <leafValues>
            -6.6691404581069946e-01 4.0275931358337402e-01</leafValues></_>
        <_>
          <internalNodes>
            0 -1 33 1342730704 -780794808 1258427669 197136655 823593899
            -80838008 1074119070 1770773147</internalNodes>
          <leafValues>
            -6.5113490819931030e-01 4.3374526500701904e-01</leafValues></_>
        <_>
          <internalNodes>
            0 -1 18 2147401470 -139297092 -486612246 -541589726
            -167979812 -428681223 1097170318 -821332562</internalNodes>
          <leafValues>
            -4.3302777409553528e-01 6.5420687198638916e-01</leafValues></_>
        <_>
          <internalNodes>
            0 -1 4 1363312914 -679198720 1342242960 327156738 142704672
            1082368 67862947 1402437775</internalNodes>
          <leafValues>
            -6.4131826162338257e-01 4.1842022538185120e-01</leafValues></_>
        <_>
          <internalNodes>
            0 -1 86 -2003793692 -1246020624 2130640628 2058596341
            -1157710012 -454034180 -1091080994 -1128555396</internalNodes>
          <leafValues>
            -4.8807907104492188e-01 5.8358365297317505e-01</leafValues></_>
        <_>
          <internalNodes>
            0 -1 20 -805247656 -1748402154 218120469 17530883 -402634486
            -1476231167 -1946154610 553844738</internalNodes>
          <leafValues>
            -5.8516961336135864e-01 5.2933788299560547e-01</leafValues></_></weakClassifiers></_>
    <!-- stage 13 -->
    <_>
      <maxWeakCount>6</maxWeakCount>
      <stageThreshold>-3.9352303743362427e-01</stageThreshold>
      <weakClassifiers>
        <_>
          <internalNodes>
            0 -1 28 2147480031 -1250164737 -872742926 -1540354565
            -1828847621 -2140078088 -1498357766 -1263533830</internalNodes>
          <leafValues>
            -4.9615383148193359e-01 6.0925924777984619e-01</leafValues></_>
        <_>
          <internalNodes>
            0 -1 54 -9175058 -836095332 1479049636 806883969 -677644664
            243400704 -1556577902 252752459</internalNodes>
          <leafValues>
            -6.7516398429870605e-01 4.1540509462356567e-01</leafValues></_>
        <_>
          <internalNodes>
            0 -1 79 -578759841 -1767145447 -2130647779 -1667987427
            -264134504 103415810 -67009368 456009881</internalNodes>
          <leafValues>
            -6.5870201587677002e-01 3.7985077500343323e-01</leafValues></_>
        <_>
          <internalNodes>
            0 -1 26 -633347986 -804630198 -565010164 -1760504758
            -820401852 302022928 721441159 1910552987</internalNodes>
          <leafValues>
            -5.8694475889205933e-01 4.5480853319168091e-01</leafValues></_>
        <_>
          <internalNodes>
            0 -1 102 -1414796039 -50401873 -1053769 -1178882121
            -1628509043 -729940482 -1262514849 -1594897071</internalNodes>
          <leafValues>
            -5.0801801681518555e-01 5.6934392452239990e-01</leafValues></_>
        <_>
          <internalNodes>
            0 -1 25 -586399653 291326111 1078018174 1631912068
            -654311346 -943060984 -1434301845 1632877131</internalNodes>
          <leafValues>
            -6.3941562175750732e-01 4.1875311732292175e-01</leafValues></_></weakClassifiers></_>
    <!-- stage 14 -->
    <_>
      <maxWeakCount>8</maxWeakCount>
      <stageThreshold>-8.5460537672042847e-01</stageThreshold>
      <weakClassifiers>
        <_>
          <internalNodes>
            0 -1 52 201373720 431533168 -1342198273 767528881 -67182594
            -1083181058 -1073742087 703360264</internalNodes>
          <leafValues>
            -5.2164947986602783e-01 5.8565020561218262e-01</leafValues></_>
        <_>
          <internalNodes>
            0 -1 74 -1909846464 -1111949332 528429045 -1143078917
            2147415466 -1342308490 -1940593272 -1079315425</internalNodes>
          <leafValues>
            -3.4753274917602539e-01 7.0979106426239014e-01</leafValues></_>
        <_>
          <internalNodes>
            0 -1 76 -1856911338 -795246080 1174929613 88178691 55213046
            2004943426 118072570 196827550</internalNodes>
          <leafValues>
            -6.0585051774978638e-01 4.4704863429069519e-01</leafValues></_>
        <_>
          <internalNodes>
            0 -1 34 -671039014 -1744752509 553664795 1908869392
            -234321877 -671088127 186706127 587926158</internalNodes>
          <leafValues>
            -5.4925245046615601e-01 5.0468808412551880e-01</leafValues></_>
        <_>
          <internalNodes>
            0 -1 104 -834761630 237460706 -16777422 -1314152650
            -1124073626 -61046795 -67109153 -339779841</internalNodes>
          <leafValues>
            -4.3976438045501709e-01 6.4073336124420166e-01</leafValues></_>
        <_>
          <internalNodes>
            0 -1 50 -1677717156 76840977 -1067335459 88409434 43045032
            -1300230144 -2096871274 145167074</internalNodes>
          <leafValues>
            -6.9732815027236938e-01 4.5169165730476379e-01</leafValues></_>
        <_>
          <internalNodes>
            0 -1 67 -679629256 -805835602 -285327776 -260966529
            -690075811 1341618045 -452984868 -541440265</internalNodes>
          <leafValues>
            -4.4189319014549255e-01 6.7039507627487183e-01</leafValues></_>
        <_>
          <internalNodes>
            0 -1 14 367162616 -1075200066 2145377789 -71323682
            -1626030978 519191935 1582716819 -105678989</internalNodes>
          <leafValues>
            -4.6885713934898376e-01 6.1482423543930054e-01</leafValues></_></weakClassifiers></_>
    <!-- stage 15 -->
    <_>
      <maxWeakCount>8</maxWeakCount>
      <stageThreshold>-6.2868541479110718e-01</stageThreshold>
      <weakClassifiers>
        <_>
          <internalNodes>
            0 -1 71 -17104905 1070399357 -1124073476 771096573 -50694281
            -822280323 -1099104385 -1095631113</internalNodes>
          <leafValues>
            -2.7731093764305115e-01 6.7494356632232666e-01</leafValues></_>
        <_>
          <internalNodes>
            0 -1 100 -596116312 -861094610 -1073741908 2040766392
            -1363394993 -1342242980 -1627394417 -5533957</internalNodes>
          <leafValues>
            -2.8458863496780396e-01 7.4546104669570923e-01</leafValues></_>
        <_>
          <internalNodes>
            0 -1 58 1124185662 1918177280 -2013035506 -582524919
            -1497288245 545857537 748450522 413842078</internalNodes>
          <leafValues>
            -6.9352704286575317e-01 3.7405753135681152e-01</leafValues></_>
        <_>
          <internalNodes>
            0 -1 81 -596836968 -840872080 2147368317 1567981041
            -302045269 -2063597577 -402682584 -1601217364</internalNodes>
          <leafValues>
            -4.6562996506690979e-01 5.2940261363983154e-01</leafValues></_>
        <_>
          <internalNodes>
            0 -1 42 -1128395264 -1025110145 -1359675720 -801608014
            -1073831996 -1921220739 -1108293749 -1279539221</internalNodes>
          <leafValues>
            -3.5883843898773193e-01 6.9175928831100464e-01</leafValues></_>
        <_>
          <internalNodes>
            0 -1 108 352879188 -1065238380 16842895 -2023938427
            -125257298 -670531308 -2147407293 299831567</internalNodes>
          <leafValues>
            -6.6451138257980347e-01 3.9264941215515137e-01</leafValues></_>
        <_>
          <internalNodes>
            0 -1 40 -570900497 -1650869376 1052707771 -92624212
            2076065718 -1094729857 -1145062471 -1476461953</internalNodes>
          <leafValues>
            -4.9674579501152039e-01 5.7089453935623169e-01</leafValues></_>
        <_>
          <internalNodes>
            0 -1 38 -604029046 -789774386 -17389906 2046689007
            -721486824 1592557509 -136887217 -547521091</internalNodes>
          <leafValues>
            -4.2699816823005676e-01 6.1215341091156006e-01</leafValues></_></weakClassifiers></_>
    <!-- stage 16 -->
    <_>
      <maxWeakCount>8</maxWeakCount>
      <stageThreshold>-9.1094386577606201e-01</stageThreshold>
      <weakClassifiers>
        <_>
          <internalNodes>
            0 -1 97 1368510694 -468189103 805310890 -799702691
            -2113888208 -1987575808 37288 8560802</internalNodes>
          <leafValues>
            -7.2923076152801514e-01 4.9960783123970032e-01</leafValues></_>
        <_>
          <internalNodes>
            0 -1 11 -9177089 -8405057 -8912901 -546142351 -402720907
            -197945353 -237603078 -430857541</internalNodes>
          <leafValues>
            -4.0391385555267334e-01 5.9586215019226074e-01</leafValues></_>
        <_>
          <internalNodes>
            0 -1 9 1619192000 349394258 -2080092917 1046382913 5941731
            5357571 5475009 520862367</internalNodes>
          <leafValues>
            -6.6063421964645386e-01 3.6404436826705933e-01</leafValues></_>
        <_>
          <internalNodes>
            0 -1 21 -617695516 -957431906 1592671104 -1027670034
            -411566140 1715994478 -445129497 -744531973</internalNodes>
          <leafValues>
            -4.3056979775428772e-01 5.9501397609710693e-01</leafValues></_>
        <_>
          <internalNodes>
            0 -1 106 -204746104 -805109695 8388610 -1878851447
            -528432759 -1341521912 -1610579030 -2113156966</internalNodes>
          <leafValues>
            -4.2773258686065674e-01 5.8112996816635132e-01</leafValues></_>
        <_>
          <internalNodes>
            0 -1 103 -1827611152 -146138316 1073621672 -2243543
            -1477451788 -903905297 1295301838 1069483096</internalNodes>
          <leafValues>
            -4.4294071197509766e-01 5.9086227416992188e-01</leafValues></_>
        <_>
          <internalNodes>
            0 -1 82 -658285877 -665743112 -1610284858 1353749053
            -2011968318 4276744 -267672906 -955003261</internalNodes>
          <leafValues>
            -4.7949421405792236e-01 5.4887086153030396e-01</leafValues></_>
        <_>
          <internalNodes>
            0 -1 19 -602800047 -951353215 287309889 -2046813301
            -1828672618 -1467821951 -1752123222 1343663811</internalNodes>
          <leafValues>
            -5.9880745410919189e-01 4.5311233401298523e-01</leafValues></_></weakClassifiers></_>
    <!-- stage 17 -->
    <_>
      <maxWeakCount>7</maxWeakCount>
      <stageThreshold>-6.6944712400436401e-01</stageThreshold>
      <weakClassifiers>
        <_>
          <internalNodes>
            0 -1 92 -2038049845 -1572732715 134283584 -2092170460
            -1593769955 -1985740535 689015224 586064616</internalNodes>
          <leafValues>
            -6.1643832921981812e-01 5.0607287883758545e-01</leafValues></_>
        <_>
          <internalNodes>
            0 -1 95 1905919154 -2142240640 -1073704556 -254537728
            554172546 -2104983552 -2139053934 -74460468</internalNodes>
          <leafValues>
            -4.9646022915840149e-01 5.0833135843276978e-01</leafValues></_>
        <_>
          <internalNodes>
            0 -1 120 -68553592 -991285265 -1157972912 1929198700
            -1477854326 215777278 -444662092 -107255814</internalNodes>
          <leafValues>
            -3.9872226119041443e-01 5.9904706478118896e-01</leafValues></_>
        <_>
          <internalNodes>
            0 -1 31 -787115944 -1944874619 21037906 -1437675082
            1208041729 546899027 1426293050 423432923</internalNodes>
          <leafValues>
            -6.5608823299407959e-01 3.7214118242263794e-01</leafValues></_>
        <_>
          <internalNodes>
            0 -1 1 1477354419 -1588854584 1375764752 323114130
            1914995986 440404001 815808535 1944038955</internalNodes>
          <leafValues>
            -5.6111544370651245e-01 4.4925960898399353e-01</leafValues></_>
        <_>
          <internalNodes>
            0 -1 12 1373630663 1515325762 1078641673 1434493033
            -1069057919 -1030601535 169361666 1802727813</internalNodes>
          <leafValues>
            -5.9606802463531494e-01 4.3638318777084351e-01</leafValues></_>
        <_>
          <internalNodes>
            0 -1 113 -1448543096 167947941 1341942629 -1716293773
            -1363410956 240992247 2003238815 -1079015496</internalNodes>
          <leafValues>
            -3.5749056935310364e-01 7.3831957578659058e-01</leafValues></_></weakClassifiers></_>
    <!-- stage 18 -->
    <_>
      <maxWeakCount>8</maxWeakCount>
      <stageThreshold>-9.5453268289566040e-01</stageThreshold>
      <weakClassifiers>
        <_>
          <internalNodes>
            0 -1 61 1359008092 -1593835344 -1056946089 -871366312
            -1040133956 -1333776373 541098297 1851326505</internalNodes>
          <leafValues>
            -7.3063975572586060e-01 4.7352263331413269e-01</leafValues></_>
        <_>
          <internalNodes>
            0 -1 96 -109014903 -251654127 1092620306 -744882112
            -1610579584 -2147483648 -2138898256 -1078228248</internalNodes>
          <leafValues>
            -4.6012273430824280e-01 6.1447596549987793e-01</leafValues></_>
        <_>
          <internalNodes>
            0 -1 115 -701982528 -927707352 1055993786 1505312356
            813088680 -2057536134 -1288401014 -1174731556</internalNodes>
          <leafValues>
            -2.8351289033889771e-01 7.9266941547393799e-01</leafValues></_>
        <_>
          <internalNodes>
            0 -1 89 -38012045 -537985155 -1099104522 -1768685699
            -539036300 2000486396 -142680066 2000093182</internalNodes>
          <leafValues>
            -4.5416894555091858e-01 5.2128082513809204e-01</leafValues></_>
        <_>
          <internalNodes>
            0 -1 111 -226263974 -1063697976 -1073717184 1084440861
            1101627552 17367040 -2071862781 1923873455</internalNodes>
          <leafValues>
            -6.5014553070068359e-01 3.7738037109375000e-01</leafValues></_>
        <_>
          <internalNodes>
            0 -1 30 -1360003331 -273948689 586938299 1074782207
            -1073744129 -1883505282 -1359104235 -895960519</internalNodes>
          <leafValues>
            -4.6986919641494751e-01 5.5620735883712769e-01</leafValues></_>
        <_>
          <internalNodes>
            0 -1 36 -198259680 -93704326 804173364 -4477122 1962067272
            -872521865 -1260913160 -1347272778</internalNodes>
          <leafValues>
            -3.3786997199058533e-01 7.5141936540603638e-01</leafValues></_>
        <_>
          <internalNodes>
            0 -1 70 -1064242446 -1755995284 1611301137 471466128
            16814337 843661453 1157929056 144646531</internalNodes>
          <leafValues>
            -6.8492782115936279e-01 4.2882061004638672e-01</leafValues></_></weakClassifiers></_>
    <!-- stage 19 -->
    <_>
      <maxWeakCount>8</maxWeakCount>
      <stageThreshold>-9.6871823072433472e-01</stageThreshold>
      <weakClassifiers>
        <_>
          <internalNodes>
            0 -1 88 -804126626 1346813956 419612756 34963600 -788493377
            -117391352 -973076197 4276341</internalNodes>
          <leafValues>
            -6.8078178167343140e-01 4.7099769115447998e-01</leafValues></_>
        <_>
          <internalNodes>
            0 -1 73 -1406891996 -1078149123 1065336576 -135266627
            -1509967974 -1879244801 -411601509 -1412196461</internalNodes>
          <leafValues>
            -3.4582585096359253e-01 6.6301697492599487e-01</leafValues></_>
        <_>
          <internalNodes>
            0 -1 85 2143289343 -22380563 -4115 -623130 -167903275
            -537633283 -581611788 -1177300929</internalNodes>
          <leafValues>
            -4.3972763419151306e-01 5.3861290216445923e-01</leafValues></_>
        <_>
          <internalNodes>
            0 -1 116 -132546316 -996085332 855603621 -138302418
            -1321956402 -2057835137 -1850305362 -1566597684</internalNodes>
          <leafValues>
            -3.2299673557281494e-01 7.4327945709228516e-01</leafValues></_>
        <_>
          <internalNodes>
            0 -1 55 -60039794 1988256202 -2013264640 -1726152655
            -1723817464 -1693908336 -1524577429 1163313739</internalNodes>
          <leafValues>
            -5.5857986211776733e-01 4.8492383956909180e-01</leafValues></_>
        <_>
          <internalNodes>
            0 -1 62 -381551632 -1156218488 -2147346467 2030900488
            -929429110 -1728020352 -2146195272 715803106</internalNodes>
          <leafValues>
            -5.2741777896881104e-01 5.0486344099044800e-01</leafValues></_>
        <_>
          <internalNodes>
            0 -1 37 -682077585 -385875768 135135264 1498255398
            -587048886 -838858169 1275259835 304284289</internalNodes>
          <leafValues>
            -5.9366011619567871e-01 4.4773370027542114e-01</leafValues></_>
        <_>
          <internalNodes>
            0 -1 2 72245946 -251579687 -1879031807 -390919765 33720330
            1007829184 -796897146 1043537243</internalNodes>
          <leafValues>
            -6.7124229669570923e-01 4.2885619401931763e-01</leafValues></_></weakClassifiers></_></stages>
  <features>
    <_>
      <rect>
        0 15 6 14</rect></_>
    <_>
      <rect>
        0 23 4 6</rect></_>
    <_>
      <rect>
        0 30 6 14</rect></_>
    <_>
      <rect>
        0 30 7 10</rect></_>
    <_>
      <rect>
        0 31 4 3</rect></_>
    <_>
      <rect>
        0 32 4 7</rect></_>
    <_>
      <rect>
        0 33 6 6</rect></_>
    <_>
      <rect>
        0 35 1 1</rect></_>
    <_>
      <rect>
        0 37 1 1</rect></_>
    <_>
      <rect>
        0 38 10 9</rect></_>
    <_>
      <rect>
        1 26 9 9</rect></_>
    <_>
      <rect>
        1 30 5 7</rect></_>
    <_>
      <rect>
        1 30 8 14</rect></_>
    <_>
      <rect>
        1 35 6 8</rect></_>
    <_>
      <rect>
        2 35 7 13</rect></_>
    <_>
      <rect>
        2 37 4 2</rect></_>
    <_>
      <rect>
        2 37 10 10</rect></_>
    <_>
      <rect>
        2 41 10 7</rect></_>
    <_>
      <rect>
        3 36 4 2</rect></_>
    <_>
      <rect>
        3 38 4 4</rect></_>
    <_>
      <rect>
        3 53 6 6</rect></_>
    <_>
      <rect>
        4 27 1 1</rect></_>
    <_>
      <rect>
        4 28 5 8</rect></_>
    <_>
      <rect>
        4 31 4 3</rect></_>
    <_>
      <rect>
        4 40 6 8</rect></_>
    <_>
      <rect>
        4 41 3 4</rect></_>
    <_>
      <rect>
        5 21 5 5</rect></_>
    <_>
      <rect>
        5 27 9 14</rect></_>
    <_>
      <rect>
        5 29 4 8</rect></_>
    <_>
      <rect>
        5 37 9 9</rect></_>
    <_>
      <rect>
        6 21 6 16</rect></_>
    <_>
      <rect>
        6 24 7 12</rect></_>
    <_>
      <rect>
        6 28 1 1</rect></_>
    <_>
      <rect>
        6 38 7 11</rect></_>
    <_>
      <rect>
        6 43 3 6</rect></_>
    <_>
      <rect>
        6 48 7 7</rect></_>
    <_>
      <rect>
        6 56 1 1</rect></_>
    <_>
      <rect>
        7 12 4 7</rect></_>
    <_>
      <rect>
        7 28 4 4</rect></_>
    <_>
      <rect>
        7 30 8 6</rect></_>
    <_>
      <rect>
        7 35 7 9</rect></_>
    <_>
      <rect>
        7 37 4 4</rect></_>
    <_>
      <rect>
        7 38 1 1</rect></_>
    <_>
      <rect>
        7 39 7 11</rect></_>
    <_>
      <rect>
        7 41 8 7</rect></_>
    <_>
      <rect>
        8 35 8 10</rect></_>
    <_>
      <rect>
        8 38 5 4</rect></_>
    <_>
      <rect>
        9 19 1 1</rect></_>
    <_>
      <rect>
        9 36 2 2</rect></_>
    <_>
      <rect>
        9 37 6 5</rect></_>
    <_>
      <rect>
        9 42 5 4</rect></_>
    <_>
      <rect>
        9 44 5 5</rect></_>
    <_>
      <rect>
        9 46 7 5</rect></_>
    <_>
      <rect>
        9 50 6 6</rect></_>
    <_>
      <rect>
        10 14 6 10</rect></_>
    <_>
      <rect>
        10 16 4 8</rect></_>
    <_>
      <rect>
        10 18 5 6</rect></_>
    <_>
      <rect>
        10 24 6 12</rect></_>
    <_>
      <rect>
        10 27 7 11</rect></_>
    <_>
      <rect>
        10 30 6 7</rect></_>
    <_>
      <rect>
        10 35 4 4</rect></_>
    <_>
      <rect>
        10 37 4 4</rect></_>
    <_>
      <rect>
        10 53 6 5</rect></_>
    <_>
      <rect>
        11 22 5 8</rect></_>
    <_>
      <rect>
        11 33 6 6</rect></_>
    <_>
      <rect>
        11 36 3 3</rect></_>
    <_>
      <rect>
        11 36 4 4</rect></_>
    <_>
      <rect>
        12 13 1 1</rect></_>
    <_>
      <rect>
        12 33 3 5</rect></_>
    <_>
      <rect>
        12 35 4 3</rect></_>
    <_>
      <rect>
        12 35 4 10</rect></_>
    <_>
      <rect>
        12 36 2 2</rect></_>
    <_>
      <rect>
        12 36 3 10</rect></_>
    <_>
      <rect>
        12 39 1 1</rect></_>
    <_>
      <rect>
        12 40 1 1</rect></_>
    <_>
      <rect>
        13 22 4 12</rect></_>
    <_>
      <rect>
        13 25 5 11</rect></_>
    <_>
      <rect>
        13 26 6 10</rect></_>
    <_>
      <rect>
        13 33 6 6</rect></_>
    <_>
      <rect>
        13 34 5 8</rect></_>
    <_>
      <rect>
        13 39 6 8</rect></_>
    <_>
      <rect>
        13 53 6 5</rect></_>
    <_>
      <rect>
        14 11 5 8</rect></_>
    <_>
      <rect>
        14 27 4 9</rect></_>
    <_>
      <rect>
        14 27 6 12</rect></_>
    <_>
      <rect>
        14 28 4 8</rect></_>
    <_>
      <rect>
        14 35 1 1</rect></_>
    <_>
      <rect>
        14 38 6 9</rect></_>
    <_>
      <rect>
        14 39 3 3</rect></_>
    <_>
      <rect>
        15 19 4 10</rect></_>
    <_>
      <rect>
        15 23 4 5</rect></_>
    <_>
      <rect>
        15 29 4 6</rect></_>
    <_>
      <rect>
        15 31 3 5</rect></_>
    <_>
      <rect>
        15 37 1 1</rect></_>
    <_>
      <rect>
        15 37 4 8</rect></_>
    <_>
      <rect>
        15 38 1 1</rect></_>
    <_>
      <rect>
        15 39 1 1</rect></_>
    <_>
      <rect>
        15 39 2 1</rect></_>
    <_>
      <rect>
        16 0 1 1</rect></_>
    <_>
      <rect>
        16 32 3 6</rect></_>
    <_>
      <rect>
        16 36 1 1</rect></_>
    <_>
      <rect>
        16 37 1 1</rect></_>
    <_>
      <rect>
        16 38 5 4</rect></_>
    <_>
      <rect>
        16 52 2 1</rect></_>
    <_>
      <rect>
        17 37 1 1</rect></_>
    <_>
      <rect>
        17 38 1 1</rect></_>
    <_>
      <rect>
        17 38 1 2</rect></_>
    <_>
      <rect>
        18 37 4 6</rect></_>
    <_>
      <rect>
        18 38 4 6</rect></_>
    <_>
      <rect>
        19 17 3 6</rect></_>
    <_>
      <rect>
        19 23 4 5</rect></_>
    <_>
      <rect>
        20 21 4 5</rect></_>
    <_>
      <rect>
        20 23 4 6</rect></_>
    <_>
      <rect>
        20 35 1 1</rect></_>
    <_>
      <rect>
        22 24 1 1</rect></_>
    <_>
      <rect>
        22 52 1 1</rect></_>
    <_>
      <rect>
        24 49 1 1</rect></_>
    <_>
      <rect>
        27 56 1 1</rect></_>
    <_>
      <rect>
        29 35 1 1</rect></_>
    <_>
      <rect>
        29 43 1 1</rect></_>
    <_>
      <rect>
        29 46 1 1</rect></_></features></cascade>
</opencv_storage>
