<?xml version="1.0"?>
<opencv_storage>
<stage14>
  <maxWeakCount>8</maxWeakCount>
  <stageThreshold>-8.5460537672042847e-01</stageThreshold>
  <weakClassifiers>
    <_>
      <internalNodes>
        0 -1 91425 201373720 431533168 -1342198273 767528881 -67182594
        -1083181058 -1073742087 703360264</internalNodes>
      <leafValues>
        -5.2164947986602783e-01 5.8565020561218262e-01</leafValues></_>
    <_>
      <internalNodes>
        0 -1 112164 -1909846464 -1111949332 528429045 -1143078917
        2147415466 -1342308490 -1940593272 -1079315425</internalNodes>
      <leafValues>
        -3.4753274917602539e-01 7.0979106426239014e-01</leafValues></_>
    <_>
      <internalNodes>
        0 -1 117154 -1856911338 -795246080 1174929613 88178691 55213046
        2004943426 118072570 196827550</internalNodes>
      <leafValues>
        -6.0585051774978638e-01 4.4704863429069519e-01</leafValues></_>
    <_>
      <internalNodes>
        0 -1 66698 -671039014 -1744752509 553664795 1908869392
        -234321877 -671088127 186706127 587926158</internalNodes>
      <leafValues>
        -5.4925245046615601e-01 5.0468808412551880e-01</leafValues></_>
    <_>
      <internalNodes>
        0 -1 140650 -834761630 237460706 -16777422 -1314152650
        -1124073626 -61046795 -67109153 -339779841</internalNodes>
      <leafValues>
        -4.3976438045501709e-01 6.4073336124420166e-01</leafValues></_>
    <_>
      <internalNodes>
        0 -1 91077 -1677717156 76840977 -1067335459 88409434 43045032
        -1300230144 -2096871274 145167074</internalNodes>
      <leafValues>
        -6.9732815027236938e-01 4.5169165730476379e-01</leafValues></_>
    <_>
      <internalNodes>
        0 -1 109302 -679629256 -805835602 -285327776 -260966529
        -690075811 1341618045 -452984868 -541440265</internalNodes>
      <leafValues>
        -4.4189319014549255e-01 6.7039507627487183e-01</leafValues></_>
    <_>
      <internalNodes>
        0 -1 28392 367162616 -1075200066 2145377789 -71323682
        -1626030978 519191935 1582716819 -105678989</internalNodes>
      <leafValues>
        -4.6885713934898376e-01 6.1482423543930054e-01</leafValues></_></weakClassifiers></stage14>
</opencv_storage>
