<?xml version="1.0"?>
<opencv_storage>
<stage12>
  <maxWeakCount>7</maxWeakCount>
  <stageThreshold>-8.8900667428970337e-01</stageThreshold>
  <weakClassifiers>
    <_>
      <internalNodes>
        0 -1 97773 268730783 -1849687936 335544521 -1908408320
        -1073434375 -1873803262 -771637112 1999288216</internalNodes>
      <leafValues>
        -6.5193372964859009e-01 5.1373183727264404e-01</leafValues></_>
    <_>
      <internalNodes>
        0 -1 148512 -627584814 1208053772 1078461184 13156369
        -1056931060 557057 8553137 1633678223</internalNodes>
      <leafValues>
        -6.6691404581069946e-01 4.0275931358337402e-01</leafValues></_>
    <_>
      <internalNodes>
        0 -1 66243 1342730704 -780794808 1258427669 197136655 823593899
        -80838008 1074119070 1770773147</internalNodes>
      <leafValues>
        -6.5113490819931030e-01 4.3374526500701904e-01</leafValues></_>
    <_>
      <internalNodes>
        0 -1 38275 2147401470 -139297092 -486612246 -541589726
        -167979812 -428681223 1097170318 -821332562</internalNodes>
      <leafValues>
        -4.3302777409553528e-01 6.5420687198638916e-01</leafValues></_>
    <_>
      <internalNodes>
        0 -1 6660 1363312914 -679198720 1342242960 327156738 142704672
        1082368 67862947 1402437775</internalNodes>
      <leafValues>
        -6.4131826162338257e-01 4.1842022538185120e-01</leafValues></_>
    <_>
      <internalNodes>
        0 -1 124380 -2003793692 -1246020624 2130640628 2058596341
        -1157710012 -454034180 -1091080994 -1128555396</internalNodes>
      <leafValues>
        -4.8807907104492188e-01 5.8358365297317505e-01</leafValues></_>
    <_>
      <internalNodes>
        0 -1 40064 -805247656 -1748402154 218120469 17530883 -402634486
        -1476231167 -1946154610 553844738</internalNodes>
      <leafValues>
        -5.8516961336135864e-01 5.2933788299560547e-01</leafValues></_></weakClassifiers></stage12>
</opencv_storage>
