<?xml version="1.0"?>
<opencv_storage>
<stage13>
  <maxWeakCount>6</maxWeakCount>
  <stageThreshold>-3.9352303743362427e-01</stageThreshold>
  <weakClassifiers>
    <_>
      <internalNodes>
        0 -1 56254 2147480031 -1250164737 -872742926 -1540354565
        -1828847621 -2140078088 -1498357766 -1263533830</internalNodes>
      <leafValues>
        -4.9615383148193359e-01 6.0925924777984619e-01</leafValues></_>
    <_>
      <internalNodes>
        0 -1 95149 -9175058 -836095332 1479049636 806883969 -677644664
        243400704 -1556577902 252752459</internalNodes>
      <leafValues>
        -6.7516398429870605e-01 4.1540509462356567e-01</leafValues></_>
    <_>
      <internalNodes>
        0 -1 118039 -578759841 -1767145447 -2130647779 -1667987427
        -264134504 103415810 -67009368 456009881</internalNodes>
      <leafValues>
        -6.5870201587677002e-01 3.7985077500343323e-01</leafValues></_>
    <_>
      <internalNodes>
        0 -1 54971 -633347986 -804630198 -565010164 -1760504758
        -820401852 302022928 721441159 1910552987</internalNodes>
      <leafValues>
        -5.8694475889205933e-01 4.5480853319168091e-01</leafValues></_>
    <_>
      <internalNodes>
        0 -1 135514 -1414796039 -50401873 -1053769 -1178882121
        -1628509043 -729940482 -1262514849 -1594897071</internalNodes>
      <leafValues>
        -5.0801801681518555e-01 5.6934392452239990e-01</leafValues></_>
    <_>
      <internalNodes>
        0 -1 48350 -586399653 291326111 1078018174 1631912068 -654311346
        -943060984 -1434301845 1632877131</internalNodes>
      <leafValues>
        -6.3941562175750732e-01 4.1875311732292175e-01</leafValues></_></weakClassifiers></stage13>
</opencv_storage>
