<?xml version="1.0"?>
<opencv_storage>
<stage11>
  <maxWeakCount>7</maxWeakCount>
  <stageThreshold>-7.9819369316101074e-01</stageThreshold>
  <weakClassifiers>
    <_>
      <internalNodes>
        0 -1 130260 -9110019 -285935113 -33751042 -285278260 -8913420
        -16908290 -657936 -1078297160</internalNodes>
      <leafValues>
        -4.6043166518211365e-01 6.2835246324539185e-01</leafValues></_>
    <_>
      <internalNodes>
        0 -1 111598 -1689887985 -1005788981 272629776 -733712158
        -2113601024 1082163330 -854879608 1437989774</internalNodes>
      <leafValues>
        -6.9375705718994141e-01 4.2093521356582642e-01</leafValues></_>
    <_>
      <internalNodes>
        0 -1 135047 1364587199 -753886600 1090535457 -2021635700
        1495304113 436216064 -800999172 756672024</internalNodes>
      <leafValues>
        -6.9985169172286987e-01 3.6954426765441895e-01</leafValues></_>
    <_>
      <internalNodes>
        0 -1 67191 1346433372 -581829637 1071644415 829652707 -462651394
        -1208664193 1073737199 -1506903494</internalNodes>
      <leafValues>
        -5.1039433479309082e-01 5.8490222692489624e-01</leafValues></_>
    <_>
      <internalNodes>
        0 -1 159570 -901857600 -391397400 721136578 -226492566
        -1208168877 1635090037 -159975546 -67141890</internalNodes>
      <leafValues>
        -4.4109532237052917e-01 7.1852278709411621e-01</leafValues></_>
    <_>
      <internalNodes>
        0 -1 91246 -2111524484 -254623592 402692439 894977032 268472574
        -1332674432 134253210 581632682</internalNodes>
      <leafValues>
        -7.1883910894393921e-01 4.3466562032699585e-01</leafValues></_>
    <_>
      <internalNodes>
        0 -1 7230 -799965054 -2146959232 1342177280 -134152176
        -2113794048 -1610612736 -2097119104 -71597901</internalNodes>
      <leafValues>
        -5.2730113267898560e-01 5.8301997184753418e-01</leafValues></_></weakClassifiers></stage11>
</opencv_storage>
