<?xml version="1.0"?>
<opencv_storage>
<stage8>
  <maxWeakCount>6</maxWeakCount>
  <stageThreshold>-1.1963278055191040e+00</stageThreshold>
  <weakClassifiers>
    <_>
      <internalNodes>
        0 -1 123702 -781332073 -518320103 -2128592633 1037140114
        -1551334470 789315593 10638 688138</internalNodes>
      <leafValues>
        -7.1007370948791504e-01 5.7753562927246094e-01</leafValues></_>
    <_>
      <internalNodes>
        0 -1 82767 -774319912 -669990760 -1610612451 -2029960156
        16856137 -1321205728 -527498789 -1342717783</internalNodes>
      <leafValues>
        -4.8914378881454468e-01 5.7753908634185791e-01</leafValues></_>
    <_>
      <internalNodes>
        0 -1 152725 -1794116358 -863190819 805930368 -535789479 1176264
        -1610579968 -1585209140 1137566459</internalNodes>
      <leafValues>
        -5.6226277351379395e-01 5.2529704570770264e-01</leafValues></_>
    <_>
      <internalNodes>
        0 -1 135385 -787480576 -1073676272 276832258 -1819082464
        -2146959360 -1039663072 -536837462 -353761109</internalNodes>
      <leafValues>
        -4.9035769701004028e-01 6.1989790201187134e-01</leafValues></_>
    <_>
      <internalNodes>
        0 -1 91704 -200223496 -648638320 1074352375 -644804336
        -1073131087 -343899455 -1593759349 168249354</internalNodes>
      <leafValues>
        -5.4265213012695312e-01 6.0751932859420776e-01</leafValues></_>
    <_>
      <internalNodes>
        0 -1 83056 1367953492 -1785147212 286261275 -673676270
        -2147401586 -652181360 -1392375558 746825961</internalNodes>
      <leafValues>
        -6.3956904411315918e-01 5.0998163223266602e-01</leafValues></_></weakClassifiers></stage8>
</opencv_storage>
