<?xml version="1.0"?>
<opencv_storage>
<stage17>
  <maxWeakCount>7</maxWeakCount>
  <stageThreshold>-6.6944712400436401e-01</stageThreshold>
  <weakClassifiers>
    <_>
      <internalNodes>
        0 -1 129701 -2038049845 -1572732715 134283584 -2092170460
        -1593769955 -1985740535 689015224 586064616</internalNodes>
      <leafValues>
        -6.1643832921981812e-01 5.0607287883758545e-01</leafValues></_>
    <_>
      <internalNodes>
        0 -1 130190 1905919154 -2142240640 -1073704556 -254537728
        554172546 -2104983552 -2139053934 -74460468</internalNodes>
      <leafValues>
        -4.9646022915840149e-01 5.0833135843276978e-01</leafValues></_>
    <_>
      <internalNodes>
        0 -1 173558 -68553592 -991285265 -1157972912 1929198700
        -1477854326 215777278 -444662092 -107255814</internalNodes>
      <leafValues>
        -3.9872226119041443e-01 5.9904706478118896e-01</leafValues></_>
    <_>
      <internalNodes>
        0 -1 64460 -787115944 -1944874619 21037906 -1437675082
        1208041729 546899027 1426293050 423432923</internalNodes>
      <leafValues>
        -6.5608823299407959e-01 3.7214118242263794e-01</leafValues></_>
    <_>
      <internalNodes>
        0 -1 5272 1477354419 -1588854584 1375764752 323114130 1914995986
        440404001 815808535 1944038955</internalNodes>
      <leafValues>
        -5.6111544370651245e-01 4.4925960898399353e-01</leafValues></_>
    <_>
      <internalNodes>
        0 -1 17105 1373630663 1515325762 1078641673 1434493033
        -1069057919 -1030601535 169361666 1802727813</internalNodes>
      <leafValues>
        -5.9606802463531494e-01 4.3638318777084351e-01</leafValues></_>
    <_>
      <internalNodes>
        0 -1 153471 -1448543096 167947941 1341942629 -1716293773
        -1363410956 240992247 2003238815 -1079015496</internalNodes>
      <leafValues>
        -3.5749056935310364e-01 7.3831957578659058e-01</leafValues></_></weakClassifiers></stage17>
</opencv_storage>
