<?xml version="1.0"?>
<opencv_storage>
<stage15>
  <maxWeakCount>8</maxWeakCount>
  <stageThreshold>-6.2868541479110718e-01</stageThreshold>
  <weakClassifiers>
    <_>
      <internalNodes>
        0 -1 111849 -17104905 1070399357 -1124073476 771096573 -50694281
        -822280323 -1099104385 -1095631113</internalNodes>
      <leafValues>
        -2.7731093764305115e-01 6.7494356632232666e-01</leafValues></_>
    <_>
      <internalNodes>
        0 -1 135315 -596116312 -861094610 -1073741908 2040766392
        -1363394993 -1342242980 -1627394417 -5533957</internalNodes>
      <leafValues>
        -2.8458863496780396e-01 7.4546104669570923e-01</leafValues></_>
    <_>
      <internalNodes>
        0 -1 96934 1124185662 1918177280 -2013035506 -582524919
        -1497288245 545857537 748450522 413842078</internalNodes>
      <leafValues>
        -6.9352704286575317e-01 3.7405753135681152e-01</leafValues></_>
    <_>
      <internalNodes>
        0 -1 119389 -596836968 -840872080 2147368317 1567981041
        -302045269 -2063597577 -402682584 -1601217364</internalNodes>
      <leafValues>
        -4.6562996506690979e-01 5.2940261363983154e-01</leafValues></_>
    <_>
      <internalNodes>
        0 -1 74573 -1128395264 -1025110145 -1359675720 -801608014
        -1073831996 -1921220739 -1108293749 -1279539221</internalNodes>
      <leafValues>
        -3.5883843898773193e-01 6.9175928831100464e-01</leafValues></_>
    <_>
      <internalNodes>
        0 -1 145266 352879188 -1065238380 16842895 -2023938427
        -125257298 -670531308 -2147407293 299831567</internalNodes>
      <leafValues>
        -6.6451138257980347e-01 3.9264941215515137e-01</leafValues></_>
    <_>
      <internalNodes>
        0 -1 74327 -570900497 -1650869376 1052707771 -92624212
        2076065718 -1094729857 -1145062471 -1476461953</internalNodes>
      <leafValues>
        -4.9674579501152039e-01 5.7089453935623169e-01</leafValues></_>
    <_>
      <internalNodes>
        0 -1 73387 -604029046 -789774386 -17389906 2046689007 -721486824
        1592557509 -136887217 -547521091</internalNodes>
      <leafValues>
        -4.2699816823005676e-01 6.1215341091156006e-01</leafValues></_></weakClassifiers></stage15>
</opencv_storage>
