<?xml version="1.0"?>
<opencv_storage>
<stage6>
  <maxWeakCount>6</maxWeakCount>
  <stageThreshold>-1.4286707639694214e+00</stageThreshold>
  <weakClassifiers>
    <_>
      <internalNodes>
        0 -1 105246 -788270082 -1061044096 33818 -671067880 -1878949655
        -2138046326 -1073182552 1458544778</internalNodes>
      <leafValues>
        -7.3085844516754150e-01 6.1163389682769775e-01</leafValues></_>
    <_>
      <internalNodes>
        0 -1 129026 -669257322 1619038352 -2147221502 -1874575344
        -1037926400 -2013265920 134908820 1074503839</internalNodes>
      <leafValues>
        -7.1223938465118408e-01 4.8759242892265320e-01</leafValues></_>
    <_>
      <internalNodes>
        0 -1 130260 -9110017 -269157897 -33619970 -4259892 -8913420
        -16908290 -9046544 -1078198984</internalNodes>
      <leafValues>
        -5.4939776659011841e-01 6.6670286655426025e-01</leafValues></_>
    <_>
      <internalNodes>
        0 -1 117962 -1 -33554689 -50393972 -1111769928 -50860836
        -704856324 -404830979 -1982865748</internalNodes>
      <leafValues>
        -5.2520161867141724e-01 6.4316815137863159e-01</leafValues></_>
    <_>
      <internalNodes>
        0 -1 57432 268491006 274780288 542209303 22053076 402768009
        -1332638717 -1996441461 1063246331</internalNodes>
      <leafValues>
        -8.1367814540863037e-01 4.2651721835136414e-01</leafValues></_>
    <_>
      <internalNodes>
        0 -1 3718 -741346361 -1023156087 75 1426681858 -1459518285 34824
        -2088458110 1364443963</internalNodes>
      <leafValues>
        -6.0815745592117310e-01 6.2180119752883911e-01</leafValues></_></weakClassifiers></stage6>
</opencv_storage>
