<?xml version="1.0"?>
<opencv_storage>
<stage16>
  <maxWeakCount>8</maxWeakCount>
  <stageThreshold>-9.1094386577606201e-01</stageThreshold>
  <weakClassifiers>
    <_>
      <internalNodes>
        0 -1 130273 1368510694 -468189103 805310890 -799702691
        -2113888208 -1987575808 37288 8560802</internalNodes>
      <leafValues>
        -7.2923076152801514e-01 4.9960783123970032e-01</leafValues></_>
    <_>
      <internalNodes>
        0 -1 17050 -9177089 -8405057 -8912901 -546142351 -402720907
        -197945353 -237603078 -430857541</internalNodes>
      <leafValues>
        -4.0391385555267334e-01 5.9586215019226074e-01</leafValues></_>
    <_>
      <internalNodes>
        0 -1 7794 1619192000 349394258 -2080092917 1046382913 5941731
        5357571 5475009 520862367</internalNodes>
      <leafValues>
        -6.6063421964645386e-01 3.6404436826705933e-01</leafValues></_>
    <_>
      <internalNodes>
        0 -1 46413 -617695516 -957431906 1592671104 -1027670034
        -411566140 1715994478 -445129497 -744531973</internalNodes>
      <leafValues>
        -4.3056979775428772e-01 5.9501397609710693e-01</leafValues></_>
    <_>
      <internalNodes>
        0 -1 140721 -204746104 -805109695 8388610 -1878851447 -528432759
        -1341521912 -1610579030 -2113156966</internalNodes>
      <leafValues>
        -4.2773258686065674e-01 5.8112996816635132e-01</leafValues></_>
    <_>
      <internalNodes>
        0 -1 136269 -1827611152 -146138316 1073621672 -2243543
        -1477451788 -903905297 1295301838 1069483096</internalNodes>
      <leafValues>
        -4.4294071197509766e-01 5.9086227416992188e-01</leafValues></_>
    <_>
      <internalNodes>
        0 -1 121767 -658285877 -665743112 -1610284858 1353749053
        -2011968318 4276744 -267672906 -955003261</internalNodes>
      <leafValues>
        -4.7949421405792236e-01 5.4887086153030396e-01</leafValues></_>
    <_>
      <internalNodes>
        0 -1 38529 -602800047 -951353215 287309889 -2046813301
        -1828672618 -1467821951 -1752123222 1343663811</internalNodes>
      <leafValues>
        -5.9880745410919189e-01 4.5311233401298523e-01</leafValues></_></weakClassifiers></stage16>
</opencv_storage>
