<?xml version="1.0"?>
<opencv_storage>
<stage3>
  <maxWeakCount>6</maxWeakCount>
  <stageThreshold>-1.1933298110961914e+00</stageThreshold>
  <weakClassifiers>
    <_>
      <internalNodes>
        0 -1 129556 -13 -51053058 -33751050 -72024076 -570564780
        -42139780 -170263332 -321069860</internalNodes>
      <leafValues>
        -6.9892472028732300e-01 7.5815737247467041e-01</leafValues></_>
    <_>
      <internalNodes>
        0 -1 130120 -1333657472 -2147483648 1342177296 -2147483520
        1477052420 -2147352576 -2013233020 -293433206</internalNodes>
      <leafValues>
        -6.4209866523742676e-01 7.3338788747787476e-01</leafValues></_>
    <_>
      <internalNodes>
        0 -1 7520 -1870094112 -1040056304 1114114 -805108735 -2113921024
        8192 -1610612736 -746389343</internalNodes>
      <leafValues>
        -5.6519496440887451e-01 7.2537678480148315e-01</leafValues></_>
    <_>
      <internalNodes>
        0 -1 117279 -177736481 1966145792 1360470024 -578338624
        -792270623 276897792 1493787822 144398479</internalNodes>
      <leafValues>
        -6.8473875522613525e-01 6.1699765920639038e-01</leafValues></_>
    <_>
      <internalNodes>
        0 -1 88394 -340791802 -1972470036 -1359003998 -496142610
        -4274684 116260735 -176785824 -1498503692</internalNodes>
      <leafValues>
        -6.1041706800460815e-01 6.9889956712722778e-01</leafValues></_>
    <_>
      <internalNodes>
        0 -1 131625 -1092088280 -2063732756 -805355917 -1297940625
        -1342393520 -302157962 1476197812 -492413600</internalNodes>
      <leafValues>
        -6.0300868749618530e-01 7.4952954053878784e-01</leafValues></_></weakClassifiers></stage3>
</opencv_storage>
