<?xml version="1.0"?>
<opencv_storage>
<cascade>
  <stageType>BOOST</stageType>
  <featureType>LBP</featureType>
  <height>80</height>
  <width>45</width>
  <stageParams>
    <boostType>GAB</boostType>
    <minHitRate>9.9900001287460327e-01</minHitRate>
    <maxFalseAlarm>5.0000000000000000e-01</maxFalseAlarm>
    <weightTrimRate>9.4999999999999996e-01</weightTrimRate>
    <maxDepth>1</maxDepth>
    <maxWeakCount>100</maxWeakCount></stageParams>
  <featureParams>
    <maxCatCount>256</maxCatCount>
    <featSize>1</featSize></featureParams>
  <stageNum>20</stageNum>
  <stages>
    <!-- stage 0 -->
    <_>
      <maxWeakCount>3</maxWeakCount>
      <stageThreshold>-8.8027763366699219e-01</stageThreshold>
      <weakClassifiers>
        <_>
          <internalNodes>
            0 -1 10 -788479852 -2146959360 129 50528257 -2013233016
            -2013200384 -2013167221 -1431601013</internalNodes>
          <leafValues>
            -8.5567009449005127e-01 7.6833975315093994e-01</leafValues></_>
        <_>
          <internalNodes>
            0 -1 1 -217653074 -218054528 16520 -1861648245 -1744142198
            -595591166 1879296138 -1836873717</internalNodes>
          <leafValues>
            -8.1591206789016724e-01 7.6212662458419800e-01</leafValues></_>
        <_>
          <internalNodes>
            0 -1 70 -164968768 -7404032 649044595 185314991 -17441316
            -33 -1359151361 -1343750145</internalNodes>
          <leafValues>
            -7.8673422336578369e-01 8.1779980659484863e-01</leafValues></_></weakClassifiers></_>
    <!-- stage 1 -->
    <_>
      <maxWeakCount>3</maxWeakCount>
      <stageThreshold>-8.6886566877365112e-01</stageThreshold>
      <weakClassifiers>
        <_>
          <internalNodes>
            0 -1 21 -118978344 -605311326 -1372672423 335540215
            -16843538 -1892421837 -16842770 -814743617</internalNodes>
          <leafValues>
            -7.1297711133956909e-01 8.2471907138824463e-01</leafValues></_>
        <_>
          <internalNodes>
            0 -1 81 -931102580 -242081728 6 -787410287 -1879015288
            4227072 134384283 -1976631157</internalNodes>
          <leafValues>
            -7.3473912477493286e-01 7.3477482795715332e-01</leafValues></_>
        <_>
          <internalNodes>
            0 -1 7 -83130742 1372651520 16827400 -1056342016 -2113781590
            -1878917120 -1995927346 1066369035</internalNodes>
          <leafValues>
            -8.9066338539123535e-01 6.1268985271453857e-01</leafValues></_></weakClassifiers></_>
    <!-- stage 2 -->
    <_>
      <maxWeakCount>5</maxWeakCount>
      <stageThreshold>-7.3633784055709839e-01</stageThreshold>
      <weakClassifiers>
        <_>
          <internalNodes>
            0 -1 71 -55772000 -1358971205 -285413911 -83951876 -15302659
            -1428291585 -360977 -221840176</internalNodes>
          <leafValues>
            -6.8518519401550293e-01 7.6106196641921997e-01</leafValues></_>
        <_>
          <internalNodes>
            0 -1 94 -201277376 -1073692672 -2147450752 -803209079
            -2147483616 -2146959359 -1878474495 -215039485</internalNodes>
          <leafValues>
            -6.5715825557708740e-01 7.0331126451492310e-01</leafValues></_>
        <_>
          <internalNodes>
            0 -1 48 -246284582 -116270568 83919317 293684352 -2009030500
            -553648124 19106235 62648703</internalNodes>
          <leafValues>
            -8.0646038055419922e-01 5.8288758993148804e-01</leafValues></_>
        <_>
          <internalNodes>
            0 -1 77 -1271868246 648802299 -268468993 -22025477
            -1764434050 1693349855 -51028226 -170983612</internalNodes>
          <leafValues>
            -6.5976935625076294e-01 7.5291699171066284e-01</leafValues></_>
        <_>
          <internalNodes>
            0 -1 2 -4433 -5259346 -285218262 -202375518 -4178 -940646466
            -436280595 -738722385</internalNodes>
          <leafValues>
            -6.7711901664733887e-01 7.1176576614379883e-01</leafValues></_></weakClassifiers></_>
    <!-- stage 3 -->
    <_>
      <maxWeakCount>3</maxWeakCount>
      <stageThreshold>-8.3487486839294434e-01</stageThreshold>
      <weakClassifiers>
        <_>
          <internalNodes>
            0 -1 43 -22221578 -6918934 -1163237890 1572855583
            -1359151922 -17 -2113743905 -1075074513</internalNodes>
          <leafValues>
            -6.4740741252899170e-01 7.9294115304946899e-01</leafValues></_>
        <_>
          <internalNodes>
            0 -1 76 -804216616 1427177472 -2130706287 1392574722
            -2138901766 1766328320 41984506 462110859</internalNodes>
          <leafValues>
            -7.6205551624298096e-01 6.7234086990356445e-01</leafValues></_>
        <_>
          <internalNodes>
            0 -1 30 1964216785 880885851 285235533 201687085 -653684552
            -1409286016 2013837512 -366372640</internalNodes>
          <leafValues>
            -8.5980838537216187e-01 6.1286032199859619e-01</leafValues></_></weakClassifiers></_>
    <!-- stage 4 -->
    <_>
      <maxWeakCount>4</maxWeakCount>
      <stageThreshold>-1.4956351518630981e+00</stageThreshold>
      <weakClassifiers>
        <_>
          <internalNodes>
            0 -1 25 -671029096 -787103616 524483 957415445 -2147385214
            -1476395008 -1844799318 -1724182373</internalNodes>
          <leafValues>
            -7.1331059932708740e-01 6.1867702007293701e-01</leafValues></_>
        <_>
          <internalNodes>
            0 -1 69 -595527976 -619669240 1065041 419762185 -1073732946
            -1173782400 -1568630597 755695883</internalNodes>
          <leafValues>
            -6.6760975122451782e-01 6.3655978441238403e-01</leafValues></_>
        <_>
          <internalNodes>
            0 -1 40 -938426230 -649117688 65 2101587978 285380618
            -2143092728 -2139088501 1269011999</internalNodes>
          <leafValues>
            -7.7850586175918579e-01 5.5021077394485474e-01</leafValues></_>
        <_>
          <internalNodes>
            0 -1 78 -259995454 1032392832 1342259249 -1693777919
            1128301195 -1442807808 -2105489205 -1550378085</internalNodes>
          <leafValues>
            -6.6492557525634766e-01 6.7982453107833862e-01</leafValues></_></weakClassifiers></_>
    <!-- stage 5 -->
    <_>
      <maxWeakCount>5</maxWeakCount>
      <stageThreshold>-6.5593349933624268e-01</stageThreshold>
      <weakClassifiers>
        <_>
          <internalNodes>
            0 -1 8 -1048609 -40894481 -289476954 -5833042 -4369
            -402821209 -318837012 -17</internalNodes>
          <leafValues>
            -6.0419791936874390e-01 6.9976907968521118e-01</leafValues></_>
        <_>
          <internalNodes>
            0 -1 58 -1632894920 -20775252 -285540612 -219259196
            -553778164 -32905 -1365354772 -1150715906</internalNodes>
          <leafValues>
            -5.6971091032028198e-01 7.1690273284912109e-01</leafValues></_>
        <_>
          <internalNodes>
            0 -1 73 -179383089 1384284308 -1018084137 406274456
            -93790002 -1204748158 -498027557 706609947</internalNodes>
          <leafValues>
            -7.3337280750274658e-01 5.6072121858596802e-01</leafValues></_>
        <_>
          <internalNodes>
            0 -1 90 -1299152896 -2101346176 -805289984 -112386048
            34078720 -2138898430 -2147483456 -377317376</internalNodes>
          <leafValues>
            -6.5045469999313354e-01 6.5346026420593262e-01</leafValues></_>
        <_>
          <internalNodes>
            0 -1 45 -44842936 -783089534 1074004009 -788436985
            -804666358 163842 -771696497 1029689502</internalNodes>
          <leafValues>
            -6.7890483140945435e-01 6.3354080915451050e-01</leafValues></_></weakClassifiers></_>
    <!-- stage 6 -->
    <_>
      <maxWeakCount>4</maxWeakCount>
      <stageThreshold>-1.5919183492660522e+00</stageThreshold>
      <weakClassifiers>
        <_>
          <internalNodes>
            0 -1 15 -721298439 1375789201 -2130705377 218169433
            814322616 -124124527 -1643214023 -291536454</internalNodes>
          <leafValues>
            -7.3382622003555298e-01 5.3130590915679932e-01</leafValues></_>
        <_>
          <internalNodes>
            0 -1 55 1480624378 1405370393 -1054816229 1967588945
            -528482166 -2105472888 -1207063557 1066102815</internalNodes>
          <leafValues>
            -7.6363402605056763e-01 4.6632876992225647e-01</leafValues></_>
        <_>
          <internalNodes>
            0 -1 74 491503098 -599195620 16929409 427889095 -1626821646
            -1048035320 -1556031286 -5789564</internalNodes>
          <leafValues>
            -6.4171415567398071e-01 6.3463711738586426e-01</leafValues></_>
        <_>
          <internalNodes>
            0 -1 13 -635766320 -194801456 1497380225 -1601437099
            -1576945269 -1844969215 -1786541175 -871724917</internalNodes>
          <leafValues>
            -7.8233116865158081e-01 5.4725605249404907e-01</leafValues></_></weakClassifiers></_>
    <!-- stage 7 -->
    <_>
      <maxWeakCount>5</maxWeakCount>
      <stageThreshold>-9.6367919445037842e-01</stageThreshold>
      <weakClassifiers>
        <_>
          <internalNodes>
            0 -1 5 -1366699009 -1063616126 1091112981 -1038958590
            -383596465 -971472767 -2116845173 -2111349</internalNodes>
          <leafValues>
            -7.5841581821441650e-01 4.7563025355339050e-01</leafValues></_>
        <_>
          <internalNodes>
            0 -1 54 -641142280 -643792824 -2147467133 -180251007
            -888534391 -1073708926 -2113724253 -1936747953</internalNodes>
          <leafValues>
            -5.9937649965286255e-01 6.2654739618301392e-01</leafValues></_>
        <_>
          <internalNodes>
            0 -1 49 -590818850 2030829721 268771353 1028997553
            2047361696 -1449492280 -75427189 1535529357</internalNodes>
          <leafValues>
            -8.0065822601318359e-01 4.7863623499870300e-01</leafValues></_>
        <_>
          <internalNodes>
            0 -1 22 737890167 -1933692997 -1359024145 -1356054617
            -285290881 -524289 -285454602 -575678985</internalNodes>
          <leafValues>
            -5.9338164329528809e-01 6.7652219533920288e-01</leafValues></_>
        <_>
          <internalNodes>
            0 -1 53 -980371046 126156819 151339095 -280686143
            -1333726585 178848395 -1853754821 1791478465</internalNodes>
          <leafValues>
            -6.9406878948211670e-01 5.5410689115524292e-01</leafValues></_></weakClassifiers></_>
    <!-- stage 8 -->
    <_>
      <maxWeakCount>5</maxWeakCount>
      <stageThreshold>-6.7585104703903198e-01</stageThreshold>
      <weakClassifiers>
        <_>
          <internalNodes>
            0 -1 86 -595703292 -85033228 -17105161 -176160897 -95168
            -1972437000 -285283074 -1171554082</internalNodes>
          <leafValues>
            -5.3436183929443359e-01 7.2609817981719971e-01</leafValues></_>
        <_>
          <internalNodes>
            0 -1 17 -2111509336 -628838680 653715442 -714554128
            -2032214563 -581120021 -191959377 -1848699730</internalNodes>
          <leafValues>
            -5.1783800125122070e-01 7.2929584980010986e-01</leafValues></_>
        <_>
          <internalNodes>
            0 -1 29 -133961550 -1204272510 -1035841065 -1886359523
            -519525477 -1314258942 -687830039 774563601</internalNodes>
          <leafValues>
            -8.0130189657211304e-01 5.2468574047088623e-01</leafValues></_>
        <_>
          <internalNodes>
            0 -1 0 -49618778 -70450919 -2130441213 -6741950 -909385333
            622720 -1039301750 1443217419</internalNodes>
          <leafValues>
            -7.8166127204895020e-01 5.0551241636276245e-01</leafValues></_>
        <_>
          <internalNodes>
            0 -1 20 -722727744 -37831444 1795079925 -85416399 -229942
            -548007972 -2030780996 -2092751624</internalNodes>
          <leafValues>
            -5.7499557733535767e-01 7.6738059520721436e-01</leafValues></_></weakClassifiers></_>
    <!-- stage 9 -->
    <_>
      <maxWeakCount>4</maxWeakCount>
      <stageThreshold>-5.2302098274230957e-01</stageThreshold>
      <weakClassifiers>
        <_>
          <internalNodes>
            0 -1 28 123564407 777765067 -1069088435 678818903 -830348833
            -1045364607 -1769342063 -285515327</internalNodes>
          <leafValues>
            -7.9354840517044067e-01 4.2362204194068909e-01</leafValues></_>
        <_>
          <internalNodes>
            0 -1 80 -458471420 1601978101 -587300996 -1119060237
            -687880484 -50364450 -688077057 -1148739088</internalNodes>
          <leafValues>
            -5.2882051467895508e-01 6.9653302431106567e-01</leafValues></_>
        <_>
          <internalNodes>
            0 -1 24 -1684880228 -1815575912 -1023098659 -241729123
            -2113298225 -2138013184 1140902585 26210459</internalNodes>
          <leafValues>
            -7.7565312385559082e-01 5.1019614934921265e-01</leafValues></_>
        <_>
          <internalNodes>
            0 -1 11 -529489661 -1132197887 69305698 -548384278
            -352274231 -2147352384 -2071783384 1354748369</internalNodes>
          <leafValues>
            -8.6752301454544067e-01 4.3458765745162964e-01</leafValues></_></weakClassifiers></_>
    <!-- stage 10 -->
    <_>
      <maxWeakCount>5</maxWeakCount>
      <stageThreshold>-8.2221996784210205e-01</stageThreshold>
      <weakClassifiers>
        <_>
          <internalNodes>
            0 -1 51 -704593668 -174907288 -2147481575 831324672
            -905281336 -477626368 -1909921174 -1567960565</internalNodes>
          <leafValues>
            -6.6377818584442139e-01 5.4110896587371826e-01</leafValues></_>
        <_>
          <internalNodes>
            0 -1 27 -1826569054 -1850723112 -34177058 -244623124
            -84025956 435975933 -1124153185 -1429598198</internalNodes>
          <leafValues>
            -4.9784156680107117e-01 7.1901321411132812e-01</leafValues></_>
        <_>
          <internalNodes>
            0 -1 57 -134182660 -180092352 138948702 84414501 965217529
            -209055727 421538429 994771054</internalNodes>
          <leafValues>
            -7.3656678199768066e-01 5.1677584648132324e-01</leafValues></_>
        <_>
          <internalNodes>
            0 -1 72 -286612740 -16797984 2146723515 -144355616
            -142606338 1205821436 -1572865 -285376513</internalNodes>
          <leafValues>
            -5.5667549371719360e-01 6.4973539113998413e-01</leafValues></_>
        <_>
          <internalNodes>
            0 -1 62 -1001683541 -620691432 -1069547520 2127826950
            -1878924771 822280192 -1406525436 -250095426</internalNodes>
          <leafValues>
            -7.7865594625473022e-01 5.5303424596786499e-01</leafValues></_></weakClassifiers></_>
    <!-- stage 11 -->
    <_>
      <maxWeakCount>6</maxWeakCount>
      <stageThreshold>-1.6093912124633789e+00</stageThreshold>
      <weakClassifiers>
        <_>
          <internalNodes>
            0 -1 69 -200154408 -619130752 1073743961 1527513229
            -1342164758 -217546590 -897537285 -1374977493</internalNodes>
          <leafValues>
            -6.5684574842453003e-01 5.3346079587936401e-01</leafValues></_>
        <_>
          <internalNodes>
            0 -1 41 -15270453 -1458519409 -1054486183 -1601469015
            -1526111467 805388297 -1565998580 -1965051587</internalNodes>
          <leafValues>
            -6.2496179342269897e-01 5.3924286365509033e-01</leafValues></_>
        <_>
          <internalNodes>
            0 -1 66 -91045252 -594534384 -2147381034 -1118354363
            587213372 2027978889 679611275 1057441882</internalNodes>
          <leafValues>
            -7.8483796119689941e-01 4.7663789987564087e-01</leafValues></_>
        <_>
          <internalNodes>
            0 -1 6 -1538157077 -1061126062 -536831743 -939081176
            -729055053 -922156542 -1727329909 -473249142</internalNodes>
          <leafValues>
            -7.8050035238265991e-01 4.6925002336502075e-01</leafValues></_>
        <_>
          <internalNodes>
            0 -1 18 1344852062 -720297856 -1862168301 -746448750
            -2013259574 -1340964862 -1342076149 290267241</internalNodes>
          <leafValues>
            -7.0863664150238037e-01 5.0996547937393188e-01</leafValues></_>
        <_>
          <internalNodes>
            0 -1 37 -594612524 -673878020 2147367080 -249414415
            -270735874 1172881118 -52494849 -1749330774</internalNodes>
          <leafValues>
            -5.3368669748306274e-01 7.7129215002059937e-01</leafValues></_></weakClassifiers></_>
    <!-- stage 12 -->
    <_>
      <maxWeakCount>4</maxWeakCount>
      <stageThreshold>-4.5817360281944275e-01</stageThreshold>
      <weakClassifiers>
        <_>
          <internalNodes>
            0 -1 19 185713407 190439492 184615920 66391378 -259853828
            -1194835952 -87309392 -1979975176</internalNodes>
          <leafValues>
            -8.3294665813446045e-01 3.8714498281478882e-01</leafValues></_>
        <_>
          <internalNodes>
            0 -1 47 -1291136318 -204304320 1091830037 -675164080
            -2136758038 -1585143664 -364514533 -2046842858</internalNodes>
          <leafValues>
            -5.8568978309631348e-01 5.5891168117523193e-01</leafValues></_>
        <_>
          <internalNodes>
            0 -1 46 -1635469313 -1346371520 -1660894917 1154318355
            -804988273 -172511085 -2092346309 1861746485</internalNodes>
          <leafValues>
            -6.7998695373535156e-01 5.0311315059661865e-01</leafValues></_>
        <_>
          <internalNodes>
            0 -1 85 319520858 -45514750 1175 2069037197 -796736884
            1073779328 -1341975670 1338591439</internalNodes>
          <leafValues>
            -6.8725180625915527e-01 5.4912590980529785e-01</leafValues></_></weakClassifiers></_>
    <!-- stage 13 -->
    <_>
      <maxWeakCount>5</maxWeakCount>
      <stageThreshold>-1.0682047605514526e+00</stageThreshold>
      <weakClassifiers>
        <_>
          <internalNodes>
            0 -1 77 1342226570 -1240808935 -2146954983 -526778224
            276824074 -268435448 -394198894 -7761792</internalNodes>
          <leafValues>
            -6.8500947952270508e-01 4.5549738407135010e-01</leafValues></_>
        <_>
          <internalNodes>
            0 -1 31 -4066169 2062360693 1565705625 225310167 -712466216
            -1316838742 -211582486 -1369791832</internalNodes>
          <leafValues>
            -7.1222925186157227e-01 4.8030963540077209e-01</leafValues></_>
        <_>
          <internalNodes>
            0 -1 92 -804015677 -41395761 1090535624 -163377027
            -216282876 -1341650880 587702579 -143941235</internalNodes>
          <leafValues>
            -6.4391237497329712e-01 5.0574511289596558e-01</leafValues></_>
        <_>
          <internalNodes>
            0 -1 56 -1878342516 -250494746 285542748 365516931
            -1862212920 269123728 -2071885695 358711946</internalNodes>
          <leafValues>
            -8.2240802049636841e-01 4.5229101181030273e-01</leafValues></_>
        <_>
          <internalNodes>
            0 -1 36 -559328080 -237738366 -1224770435 -248922968
            -1614836596 -889340120 -1754927368 -87276372</internalNodes>
          <leafValues>
            -5.3769141435623169e-01 7.6460558176040649e-01</leafValues></_></weakClassifiers></_>
    <!-- stage 14 -->
    <_>
      <maxWeakCount>7</maxWeakCount>
      <stageThreshold>-1.0145076513290405e+00</stageThreshold>
      <weakClassifiers>
        <_>
          <internalNodes>
            0 -1 87 -254132208 -1878523903 -1073737711 -804487159
            -1073741822 1476395008 -1039499062 -1165088630</internalNodes>
          <leafValues>
            -6.2244898080825806e-01 5.1953125000000000e-01</leafValues></_>
        <_>
          <internalNodes>
            0 -1 35 -706740777 -2122296959 33775810 -1536966448
            -1607439056 545294385 1611304560 1912404273</internalNodes>
          <leafValues>
            -7.3631662130355835e-01 4.3034595251083374e-01</leafValues></_>
        <_>
          <internalNodes>
            0 -1 3 1484822768 -787005204 17203336 833822099 98465
            1375731842 276926751 967000903</internalNodes>
          <leafValues>
            -6.8896263837814331e-01 5.0194114446640015e-01</leafValues></_>
        <_>
          <internalNodes>
            0 -1 32 1880283354 -1853770990 -805240547 -679149549
            -1593737202 -1694498639 -2134343671 -1052006133</internalNodes>
          <leafValues>
            -5.7340043783187866e-01 6.2111914157867432e-01</leafValues></_>
        <_>
          <internalNodes>
            0 -1 89 120033692 -1050476077 51499248 -241098492 1107823498
            151650304 758194937 2075093507</internalNodes>
          <leafValues>
            -6.7583966255187988e-01 4.9763813614845276e-01</leafValues></_>
        <_>
          <internalNodes>
            0 -1 63 -1743718945 -666789631 -805252144 2047004673
            -796792392 -375091072 839942331 -1173192675</internalNodes>
          <leafValues>
            -6.2351882457733154e-01 6.1067342758178711e-01</leafValues></_>
        <_>
          <internalNodes>
            0 -1 9 1343415452 -753753934 -2147467111 823689261
            -1073610744 268435457 -2139090741 1054810122</internalNodes>
          <leafValues>
            -6.5234112739562988e-01 5.6583911180496216e-01</leafValues></_></weakClassifiers></_>
    <!-- stage 15 -->
    <_>
      <maxWeakCount>6</maxWeakCount>
      <stageThreshold>-1.3203520774841309e+00</stageThreshold>
      <weakClassifiers>
        <_>
          <internalNodes>
            0 -1 67 -127802164 -242073600 1880719635 -1660647969
            -1472044766 -16641864 -532536977 -1087400997</internalNodes>
          <leafValues>
            -6.5090906620025635e-01 4.6909090876579285e-01</leafValues></_>
        <_>
          <internalNodes>
            0 -1 91 -897107009 -687263480 -1056910815 1346699287
            -259375035 1119977472 -1610366841 -211040043</internalNodes>
          <leafValues>
            -5.9723395109176636e-01 5.0981646776199341e-01</leafValues></_>
        <_>
          <internalNodes>
            0 -1 50 -30487145 -42029436 -1099609003 -1880138259
            2147450871 1610612734 -8438923 -34824</internalNodes>
          <leafValues>
            -5.3450971841812134e-01 5.8356988430023193e-01</leafValues></_>
        <_>
          <internalNodes>
            0 -1 75 -450314000 -686734950 285229531 1518404937
            -1608351166 44072969 -1157571925 999549195</internalNodes>
          <leafValues>
            -7.3201173543930054e-01 4.3378996849060059e-01</leafValues></_>
        <_>
          <internalNodes>
            0 -1 26 -60765052 1919684238 795799295 -203239878
            -1224969090 -1419436161 -1346460932 -1146153326</internalNodes>
          <leafValues>
            -4.4465216994285583e-01 7.8709232807159424e-01</leafValues></_>
        <_>
          <internalNodes>
            0 -1 33 -1336610604 1931771906 -1946155881 1071714562
            -2147073902 -1609531392 -1644123765 458459338</internalNodes>
          <leafValues>
            -7.8223013877868652e-01 4.7316285967826843e-01</leafValues></_></weakClassifiers></_>
    <!-- stage 16 -->
    <_>
      <maxWeakCount>6</maxWeakCount>
      <stageThreshold>-7.1934944391250610e-01</stageThreshold>
      <weakClassifiers>
        <_>
          <internalNodes>
            0 -1 83 -208613174 -771125024 -2130439663 -2096000763
            -1341024022 -775482744 -1973382965 -1951683669</internalNodes>
          <leafValues>
            -6.5201467275619507e-01 4.6209385991096497e-01</leafValues></_>
        <_>
          <internalNodes>
            0 -1 4 -1379015553 -364523441 1074222670 1611309122
            -669277437 1095467137 -699554101 1923807403</internalNodes>
          <leafValues>
            -8.4218221902847290e-01 3.8339233398437500e-01</leafValues></_>
        <_>
          <internalNodes>
            0 -1 14 -2066240853 -996159173 1135044 -196767730
            -2147284919 -855080575 -1023180714 -293608696</internalNodes>
          <leafValues>
            -6.7444390058517456e-01 4.6519047021865845e-01</leafValues></_>
        <_>
          <internalNodes>
            0 -1 52 -448399652 -1735393264 -2080259623 749753842
            553928967 1518407944 -523452361 145552373</internalNodes>
          <leafValues>
            -7.9773038625717163e-01 4.2461979389190674e-01</leafValues></_>
        <_>
          <internalNodes>
            0 -1 60 -788525040 -796786544 302022785 2030436485
            -1868562294 -2147483646 709558514 -108461624</internalNodes>
          <leafValues>
            -5.8932173252105713e-01 6.0709756612777710e-01</leafValues></_>
        <_>
          <internalNodes>
            0 -1 44 62195 327291436 18973009 731447429 160432336
            -553549694 -1953949240 998182158</internalNodes>
          <leafValues>
            -6.3974970579147339e-01 5.4545480012893677e-01</leafValues></_></weakClassifiers></_>
    <!-- stage 17 -->
    <_>
      <maxWeakCount>6</maxWeakCount>
      <stageThreshold>-5.8558994531631470e-01</stageThreshold>
      <weakClassifiers>
        <_>
          <internalNodes>
            0 -1 38 739781239 -1967592717 -1037973952 -293924841
            -519024491 1363257730 -93808201 -285643871</internalNodes>
          <leafValues>
            -7.8301888704299927e-01 3.4319525957107544e-01</leafValues></_>
        <_>
          <internalNodes>
            0 -1 34 -571017283 -1439608527 1510330501 -1977752419
            432455938 -536772592 -2046043501 -2004180517</internalNodes>
          <leafValues>
            -6.6333734989166260e-01 4.4746360182762146e-01</leafValues></_>
        <_>
          <internalNodes>
            0 -1 39 -1309034029 -5170149 1480589565 1360596995
            -1868304216 -246349677 -1173858104 1837789981</internalNodes>
          <leafValues>
            -6.4341342449188232e-01 4.8864996433258057e-01</leafValues></_>
        <_>
          <internalNodes>
            0 -1 93 -183406592 549519488 272647176 -1702850432 545329200
            1074364576 -2147446319 -139558397</internalNodes>
          <leafValues>
            -5.9072023630142212e-01 5.5389690399169922e-01</leafValues></_>
        <_>
          <internalNodes>
            0 -1 82 1963625144 -694452224 352363662 1510576337
            -780120944 -2009489003 -117387589 1941913603</internalNodes>
          <leafValues>
            -7.3562175035476685e-01 4.3492811918258667e-01</leafValues></_>
        <_>
          <internalNodes>
            0 -1 61 980942952 -1704464806 2146355794 -1723220747
            -1923349266 645394421 -1212754276 -561341264</internalNodes>
          <leafValues>
            -5.3855681419372559e-01 6.2239325046539307e-01</leafValues></_></weakClassifiers></_>
    <!-- stage 18 -->
    <_>
      <maxWeakCount>6</maxWeakCount>
      <stageThreshold>-1.4156399965286255e+00</stageThreshold>
      <weakClassifiers>
        <_>
          <internalNodes>
            0 -1 71 1493315712 -925827072 -2146385919 -929349500
            1510088769 -2113929208 1109526763 -87766839</internalNodes>
          <leafValues>
            -7.1182793378829956e-01 3.6377951502799988e-01</leafValues></_>
        <_>
          <internalNodes>
            0 -1 42 -83890381 1810501373 -102529 2146372957 -50528258
            -541163521 -172036 -68157474</internalNodes>
          <leafValues>
            -5.1177752017974854e-01 5.9643161296844482e-01</leafValues></_>
        <_>
          <internalNodes>
            0 -1 59 -221142867 -805238635 -1857699032 1392923010
            -335175418 1090519041 1761803556 -645146375</internalNodes>
          <leafValues>
            -6.9990193843841553e-01 4.8025545477867126e-01</leafValues></_>
        <_>
          <internalNodes>
            0 -1 23 2048127946 -209665536 -805302268 2050707729
            -1744792919 -365198656 -1961230111 12028092</internalNodes>
          <leafValues>
            -7.0034700632095337e-01 4.8469007015228271e-01</leafValues></_>
        <_>
          <internalNodes>
            0 -1 68 517318548 -1563294415 1368445521 -494583689
            -1488496437 -1207950335 -574072743 -1629233571</internalNodes>
          <leafValues>
            -6.7365831136703491e-01 4.9688160419464111e-01</leafValues></_>
        <_>
          <internalNodes>
            0 -1 79 -63335248 -67616927 -168227225 -203990242
            -1350905978 -288523273 1115084767 -135291499</internalNodes>
          <leafValues>
            -4.7370424866676331e-01 7.7197158336639404e-01</leafValues></_></weakClassifiers></_>
    <!-- stage 19 -->
    <_>
      <maxWeakCount>6</maxWeakCount>
      <stageThreshold>-8.3353453874588013e-01</stageThreshold>
      <weakClassifiers>
        <_>
          <internalNodes>
            0 -1 16 -165678113 -1747873312 1477513345 140452211
            -1825369205 -131431928 -1567639062 -1936943025</internalNodes>
          <leafValues>
            -6.3898915052413940e-01 4.6520146727561951e-01</leafValues></_>
        <_>
          <internalNodes>
            0 -1 65 -184354608 1023455232 -1073145704 2141028705 37530
            -81917824 1375814236 942342567</internalNodes>
          <leafValues>
            -7.3979473114013672e-01 3.9055362343788147e-01</leafValues></_>
        <_>
          <internalNodes>
            0 -1 64 -99303231 1107525952 411095316 -330300264 570493435
            311042440 -1740089208 -323899205</internalNodes>
          <leafValues>
            -7.8350216150283813e-01 3.9630508422851562e-01</leafValues></_>
        <_>
          <internalNodes>
            0 -1 88 -1274015552 -804192254 -1879046951 -644869848
            -1048436598 -1862270976 -536300885 -1876162424</internalNodes>
          <leafValues>
            -5.6272488832473755e-01 5.7251042127609253e-01</leafValues></_>
        <_>
          <internalNodes>
            0 -1 84 -787962216 -720122848 68233281 -711475019 1728155370
            145949089 704746287 1944487117</internalNodes>
          <leafValues>
            -7.4167662858963013e-01 5.0398820638656616e-01</leafValues></_>
        <_>
          <internalNodes>
            0 -1 12 13931007 872646153 269492802 24625166 -603331573
            -268402176 -1156871542 716147112</internalNodes>
          <leafValues>
            -7.3662126064300537e-01 4.4315874576568604e-01</leafValues></_></weakClassifiers></_></stages>
  <features>
    <_>
      <rect>
        0 0 15 21</rect></_>
    <_>
      <rect>
        0 7 15 17</rect></_>
    <_>
      <rect>
        0 22 15 11</rect></_>
    <_>
      <rect>
        0 29 15 17</rect></_>
    <_>
      <rect>
        1 34 5 6</rect></_>
    <_>
      <rect>
        1 34 6 6</rect></_>
    <_>
      <rect>
        2 32 5 6</rect></_>
    <_>
      <rect>
        3 1 14 26</rect></_>
    <_>
      <rect>
        3 22 14 9</rect></_>
    <_>
      <rect>
        3 41 12 13</rect></_>
    <_>
      <rect>
        8 37 10 3</rect></_>
    <_>
      <rect>
        9 32 11 8</rect></_>
    <_>
      <rect>
        9 34 3 5</rect></_>
    <_>
      <rect>
        11 25 6 4</rect></_>
    <_>
      <rect>
        11 34 5 8</rect></_>
    <_>
      <rect>
        11 35 8 4</rect></_>
    <_>
      <rect>
        12 27 4 5</rect></_>
    <_>
      <rect>
        12 32 1 1</rect></_>
    <_>
      <rect>
        12 33 2 4</rect></_>
    <_>
      <rect>
        12 34 5 4</rect></_>
    <_>
      <rect>
        12 38 1 1</rect></_>
    <_>
      <rect>
        12 41 4 2</rect></_>
    <_>
      <rect>
        13 17 8 15</rect></_>
    <_>
      <rect>
        13 36 3 2</rect></_>
    <_>
      <rect>
        13 37 3 3</rect></_>
    <_>
      <rect>
        13 40 3 3</rect></_>
    <_>
      <rect>
        13 49 1 1</rect></_>
    <_>
      <rect>
        14 30 1 1</rect></_>
    <_>
      <rect>
        14 30 6 8</rect></_>
    <_>
      <rect>
        14 31 6 4</rect></_>
    <_>
      <rect>
        14 33 6 5</rect></_>
    <_>
      <rect>
        14 35 6 4</rect></_>
    <_>
      <rect>
        14 39 3 2</rect></_>
    <_>
      <rect>
        14 40 3 3</rect></_>
    <_>
      <rect>
        15 25 3 5</rect></_>
    <_>
      <rect>
        15 25 8 7</rect></_>
    <_>
      <rect>
        15 29 1 1</rect></_>
    <_>
      <rect>
        15 32 1 1</rect></_>
    <_>
      <rect>
        15 33 6 7</rect></_>
    <_>
      <rect>
        15 36 3 3</rect></_>
    <_>
      <rect>
        15 39 3 3</rect></_>
    <_>
      <rect>
        16 20 5 11</rect></_>
    <_>
      <rect>
        16 35 3 4</rect></_>
    <_>
      <rect>
        16 40 2 3</rect></_>
    <_>
      <rect>
        16 45 4 3</rect></_>
    <_>
      <rect>
        17 0 9 26</rect></_>
    <_>
      <rect>
        17 32 5 5</rect></_>
    <_>
      <rect>
        17 35 2 2</rect></_>
    <_>
      <rect>
        17 36 4 3</rect></_>
    <_>
      <rect>
        17 37 3 3</rect></_>
    <_>
      <rect>
        17 38 6 4</rect></_>
    <_>
      <rect>
        17 42 2 2</rect></_>
    <_>
      <rect>
        18 28 6 7</rect></_>
    <_>
      <rect>
        18 32 5 5</rect></_>
    <_>
      <rect>
        18 33 2 3</rect></_>
    <_>
      <rect>
        18 37 2 3</rect></_>
    <_>
      <rect>
        18 37 4 3</rect></_>
    <_>
      <rect>
        18 41 5 3</rect></_>
    <_>
      <rect>
        18 42 1 1</rect></_>
    <_>
      <rect>
        19 22 8 9</rect></_>
    <_>
      <rect>
        19 42 1 1</rect></_>
    <_>
      <rect>
        20 14 1 1</rect></_>
    <_>
      <rect>
        20 26 8 9</rect></_>
    <_>
      <rect>
        20 30 5 3</rect></_>
    <_>
      <rect>
        20 39 2 1</rect></_>
    <_>
      <rect>
        20 41 3 2</rect></_>
    <_>
      <rect>
        20 42 3 3</rect></_>
    <_>
      <rect>
        21 34 3 3</rect></_>
    <_>
      <rect>
        21 34 3 5</rect></_>
    <_>
      <rect>
        21 36 3 2</rect></_>
    <_>
      <rect>
        21 38 3 2</rect></_>
    <_>
      <rect>
        21 39 1 1</rect></_>
    <_>
      <rect>
        21 40 5 2</rect></_>
    <_>
      <rect>
        22 31 4 4</rect></_>
    <_>
      <rect>
        22 35 3 4</rect></_>
    <_>
      <rect>
        22 36 4 2</rect></_>
    <_>
      <rect>
        22 38 4 3</rect></_>
    <_>
      <rect>
        22 39 1 1</rect></_>
    <_>
      <rect>
        22 39 2 2</rect></_>
    <_>
      <rect>
        22 52 1 1</rect></_>
    <_>
      <rect>
        23 35 1 1</rect></_>
    <_>
      <rect>
        23 35 2 3</rect></_>
    <_>
      <rect>
        23 37 4 3</rect></_>
    <_>
      <rect>
        23 38 2 2</rect></_>
    <_>
      <rect>
        23 40 3 2</rect></_>
    <_>
      <rect>
        24 33 2 5</rect></_>
    <_>
      <rect>
        24 36 1 1</rect></_>
    <_>
      <rect>
        24 37 1 1</rect></_>
    <_>
      <rect>
        24 38 1 1</rect></_>
    <_>
      <rect>
        25 43 3 3</rect></_>
    <_>
      <rect>
        33 53 1 1</rect></_>
    <_>
      <rect>
        36 29 3 7</rect></_>
    <_>
      <rect>
        36 36 3 3</rect></_>
    <_>
      <rect>
        38 39 1 1</rect></_>
    <_>
      <rect>
        39 39 1 1</rect></_></features></cascade>
</opencv_storage>
