<?xml version="1.0"?>
<opencv_storage>
<stage15>
  <maxWeakCount>6</maxWeakCount>
  <stageThreshold>-1.3203520774841309e+00</stageThreshold>
  <weakClassifiers>
    <_>
      <internalNodes>
        0 -1 256310 -127802164 -242073600 1880719635 -1660647969
        -1472044766 -16641864 -532536977 -1087400997</internalNodes>
      <leafValues>
        -6.5090906620025635e-01 4.6909090876579285e-01</leafValues></_>
    <_>
      <internalNodes>
        0 -1 336778 -897107009 -687263480 -1056910815 1346699287
        -259375035 1119977472 -1610366841 -211040043</internalNodes>
      <leafValues>
        -5.9723395109176636e-01 5.0981646776199341e-01</leafValues></_>
    <_>
      <internalNodes>
        0 -1 221779 -30487145 -42029436 -1099609003 -1880138259
        2147450871 1610612734 -8438923 -34824</internalNodes>
      <leafValues>
        -5.3450971841812134e-01 5.8356988430023193e-01</leafValues></_>
    <_>
      <internalNodes>
        0 -1 264247 -450314000 -686734950 285229531 1518404937
        -1608351166 44072969 -1157571925 999549195</internalNodes>
      <leafValues>
        -7.3201173543930054e-01 4.3378996849060059e-01</leafValues></_>
    <_>
      <internalNodes>
        0 -1 182725 -60765052 1919684238 795799295 -203239878
        -1224969090 -1419436161 -1346460932 -1146153326</internalNodes>
      <leafValues>
        -4.4465216994285583e-01 7.8709232807159424e-01</leafValues></_>
    <_>
      <internalNodes>
        0 -1 192233 -1336610604 1931771906 -1946155881 1071714562
        -2147073902 -1609531392 -1644123765 458459338</internalNodes>
      <leafValues>
        -7.8223013877868652e-01 4.7316285967826843e-01</leafValues></_></weakClassifiers></stage15>
</opencv_storage>
