<?xml version="1.0"?>
<opencv_storage>
<stage14>
  <maxWeakCount>7</maxWeakCount>
  <stageThreshold>-1.0145076513290405e+00</stageThreshold>
  <weakClassifiers>
    <_>
      <internalNodes>
        0 -1 279044 -254132208 -1878523903 -1073737711 -804487159
        -1073741822 1476395008 -1039499062 -1165088630</internalNodes>
      <leafValues>
        -6.2244898080825806e-01 5.1953125000000000e-01</leafValues></_>
    <_>
      <internalNodes>
        0 -1 200517 -706740777 -2122296959 33775810 -1536966448
        -1607439056 545294385 1611304560 1912404273</internalNodes>
      <leafValues>
        -7.3631662130355835e-01 4.3034595251083374e-01</leafValues></_>
    <_>
      <internalNodes>
        0 -1 9674 1484822768 -787005204 17203336 833822099 98465
        1375731842 276926751 967000903</internalNodes>
      <leafValues>
        -6.8896263837814331e-01 5.0194114446640015e-01</leafValues></_>
    <_>
      <internalNodes>
        0 -1 192102 1880283354 -1853770990 -805240547 -679149549
        -1593737202 -1694498639 -2134343671 -1052006133</internalNodes>
      <leafValues>
        -5.7340043783187866e-01 6.2111914157867432e-01</leafValues></_>
    <_>
      <internalNodes>
        0 -1 286163 120033692 -1050476077 51499248 -241098492 1107823498
        151650304 758194937 2075093507</internalNodes>
      <leafValues>
        -6.7583966255187988e-01 4.9763813614845276e-01</leafValues></_>
    <_>
      <internalNodes>
        0 -1 247416 -1743718945 -666789631 -805252144 2047004673
        -796792392 -375091072 839942331 -1173192675</internalNodes>
      <leafValues>
        -6.2351882457733154e-01 6.1067342758178711e-01</leafValues></_>
    <_>
      <internalNodes>
        0 -1 56718 1343415452 -753753934 -2147467111 823689261
        -1073610744 268435457 -2139090741 1054810122</internalNodes>
      <leafValues>
        -6.5234112739562988e-01 5.6583911180496216e-01</leafValues></_></weakClassifiers></stage14>
</opencv_storage>
