<?xml version="1.0"?>
<opencv_storage>
<stage19>
  <maxWeakCount>6</maxWeakCount>
  <stageThreshold>-8.3353453874588013e-01</stageThreshold>
  <weakClassifiers>
    <_>
      <internalNodes>
        0 -1 168751 -165678113 -1747873312 1477513345 140452211
        -1825369205 -131431928 -1567639062 -1936943025</internalNodes>
      <leafValues>
        -6.3898915052413940e-01 4.6520146727561951e-01</leafValues></_>
    <_>
      <internalNodes>
        0 -1 248665 -184354608 1023455232 -1073145704 2141028705 37530
        -81917824 1375814236 942342567</internalNodes>
      <leafValues>
        -7.3979473114013672e-01 3.9055362343788147e-01</leafValues></_>
    <_>
      <internalNodes>
        0 -1 248443 -99303231 1107525952 411095316 -330300264 570493435
        311042440 -1740089208 -323899205</internalNodes>
      <leafValues>
        -7.8350216150283813e-01 3.9630508422851562e-01</leafValues></_>
    <_>
      <internalNodes>
        0 -1 279142 -1274015552 -804192254 -1879046951 -644869848
        -1048436598 -1862270976 -536300885 -1876162424</internalNodes>
      <leafValues>
        -5.6272488832473755e-01 5.7251042127609253e-01</leafValues></_>
    <_>
      <internalNodes>
        0 -1 271987 -787962216 -720122848 68233281 -711475019 1728155370
        145949089 704746287 1944487117</internalNodes>
      <leafValues>
        -7.4167662858963013e-01 5.0398820638656616e-01</leafValues></_>
    <_>
      <internalNodes>
        0 -1 134890 13931007 872646153 269492802 24625166 -603331573
        -268402176 -1156871542 716147112</internalNodes>
      <leafValues>
        -7.3662126064300537e-01 4.4315874576568604e-01</leafValues></_></weakClassifiers></stage19>
</opencv_storage>
