<?xml version="1.0"?>
<opencv_storage>
<stage16>
  <maxWeakCount>6</maxWeakCount>
  <stageThreshold>-7.1934944391250610e-01</stageThreshold>
  <weakClassifiers>
    <_>
      <internalNodes>
        0 -1 271786 -208613174 -771125024 -2130439663 -2096000763
        -1341024022 -775482744 -1973382965 -1951683669</internalNodes>
      <leafValues>
        -6.5201467275619507e-01 4.6209385991096497e-01</leafValues></_>
    <_>
      <internalNodes>
        0 -1 25772 -1379015553 -364523441 1074222670 1611309122
        -669277437 1095467137 -699554101 1923807403</internalNodes>
      <leafValues>
        -8.4218221902847290e-01 3.8339233398437500e-01</leafValues></_>
    <_>
      <internalNodes>
        0 -1 158434 -2066240853 -996159173 1135044 -196767730
        -2147284919 -855080575 -1023180714 -293608696</internalNodes>
      <leafValues>
        -6.7444390058517456e-01 4.6519047021865845e-01</leafValues></_>
    <_>
      <internalNodes>
        0 -1 229879 -448399652 -1735393264 -2080259623 749753842
        553928967 1518407944 -523452361 145552373</internalNodes>
      <leafValues>
        -7.9773038625717163e-01 4.2461979389190674e-01</leafValues></_>
    <_>
      <internalNodes>
        0 -1 240318 -788525040 -796786544 302022785 2030436485
        -1868562294 -2147483646 709558514 -108461624</internalNodes>
      <leafValues>
        -5.8932173252105713e-01 6.0709756612777710e-01</leafValues></_>
    <_>
      <internalNodes>
        0 -1 213065 62195 327291436 18973009 731447429 160432336
        -553549694 -1953949240 998182158</internalNodes>
      <leafValues>
        -6.3974970579147339e-01 5.4545480012893677e-01</leafValues></_></weakClassifiers></stage16>
</opencv_storage>
